<?xml version="1.0"?>
<opencv_storage>
<my_boost_tree type_id="opencv-ml-boost-tree">
  <boosting_type>RealAdaboost</boosting_type>
  <splitting_criteria>Gini</splitting_criteria>
  <ntrees>100</ntrees>
  <weight_trimming_rate>9.4999999999999996e-01</weight_trimming_rate>
  <is_classifier>1</is_classifier>
  <var_all>105</var_all>
  <var_count>105</var_count>
  <ord_var_count>105</ord_var_count>
  <cat_var_count>0</cat_var_count>
  <training_params>
    <use_surrogates>1</use_surrogates>
    <max_categories>10</max_categories>
    <max_depth>1</max_depth>
    <min_sample_count>10</min_sample_count>
    <cross_validation_folds>0</cross_validation_folds>
    <priors type_id="opencv-matrix">
      <rows>1</rows>
      <cols>2</cols>
      <dt>d</dt>
      <data>
        1. 1.</data></priors></training_params>
  <var_type>
    0 0 0 0 0 0 0 0 0 0 0 0 0 0 0 0 0 0 0 0 0 0 0 0 0 0 0 0 0 0 0 0 0 0
    0 0 0 0 0 0 0 0 0 0 0 0 0 0 0 0 0 0 0 0 0 0 0 0 0 0 0 0 0 0 0 0 0 0
    0 0 0 0 0 0 0 0 0 0 0 0 0 0 0 0 0 0 0 0 0 0 0 0 0 0 0 0 0 0 0 0 0 0
    0 0 0</var_type>
  <cat_count type_id="opencv-matrix">
    <rows>1</rows>
    <cols>1</cols>
    <dt>i</dt>
    <data>
      2</data></cat_count>
  <cat_map type_id="opencv-matrix">
    <rows>1</rows>
    <cols>2</cols>
    <dt>i</dt>
    <data>
      0 1</data></cat_map>
  <trees>
    <_>
      <best_tree_idx>-1</best_tree_idx>
      <nodes>
        <_>
          <depth>0</depth>
          <sample_count>2140</sample_count>
          <value>-1.2186393003993778e+00</value>
          <norm_class_idx>0</norm_class_idx>
          <Tn>0</Tn>
          <complexity>0</complexity>
          <alpha>0.</alpha>
          <node_risk>0.</node_risk>
          <tree_risk>0.</tree_risk>
          <tree_error>0.</tree_error>
          <splits>
            <_><var>98</var>
              <quality>8.6658740043640137e-01</quality>
              <le>5.7538378238677979e-01</le></_>
            <_><var>104</var>
              <quality>7.4631798267364502e-01</quality>
              <le>2.9196810722351074e-01</le></_>
            <_><var>89</var>
              <quality>7.1797174215316772e-01</quality>
              <le>1.1626130342483521e+00</le></_>
            <_><var>76</var>
              <quality>7.0906287431716919e-01</quality>
              <le>1.1683220863342285e+00</le></_>
            <_><var>95</var>
              <quality>7.0582330226898193e-01</quality>
              <le>5.1915073394775391e-01</le></_>
            <_><var>96</var>
              <quality>7.0541834831237793e-01</quality>
              <le>5.3820645809173584e-01</le></_>
            <_><var>59</var>
              <quality>6.9448477029800415e-01</quality>
              <le>9.8149067163467407e-01</le></_>
            <_><var>26</var>
              <quality>6.9205504655838013e-01</quality>
              <le>1.0579526424407959e+00</le></_>
            <_><var>68</var>
              <quality>6.8922048807144165e-01</quality>
              <le>1.1423316001892090e+00</le></_>
            <_><var>38</var>
              <quality>6.8800562620162964e-01</quality>
              <le>1.0173590183258057e+00</le></_>
            <_><var>94</var>
              <quality>6.8436110019683838e-01</quality>
              <le>1.3140983581542969e+00</le></_>
            <_><var>13</var>
              <quality>6.8395614624023438e-01</quality>
              <le>1.0825004577636719e+00</le></_>
            <_><var>49</var>
              <quality>6.7666709423065186e-01</quality>
              <le>1.1227244138717651e+00</le></_>
            <_><var>73</var>
              <quality>6.7180770635604858e-01</quality>
              <le>1.0256295204162598e+00</le></_>
            <_><var>83</var>
              <quality>6.7018789052963257e-01</quality>
              <le>1.3040802478790283e+00</le></_>
            <_><var>87</var>
              <quality>6.6370874643325806e-01</quality>
              <le>1.0249745845794678e+00</le></_>
            <_><var>86</var>
              <quality>6.6330379247665405e-01</quality>
              <le>1.1189835071563721e+00</le></_>
            <_><var>34</var>
              <quality>6.6330379247665405e-01</quality>
              <gt>3.5322427749633789e-01</gt></_>
            <_><var>72</var>
              <quality>6.6289883852005005e-01</quality>
              <gt>4.8088562488555908e-01</gt></_>
            <_><var>55</var>
              <quality>6.6208899021148682e-01</quality>
              <gt>3.5486525297164917e-01</gt></_>
            <_><var>9</var>
              <quality>6.6006428003311157e-01</quality>
              <gt>4.5689380168914795e-01</gt></_>
            <_><var>22</var>
              <quality>6.5925437211990356e-01</quality>
              <gt>4.3000537157058716e-01</gt></_>
            <_><var>64</var>
              <quality>6.5722960233688354e-01</quality>
              <gt>5.4589945077896118e-01</gt></_>
            <_><var>45</var>
              <quality>6.5479993820190430e-01</quality>
              <gt>5.6627380847930908e-01</gt></_>
            <_><var>35</var>
              <quality>6.5439498424530029e-01</quality>
              <le>8.4273284673690796e-01</le></_>
            <_><var>85</var>
              <quality>6.5439498424530029e-01</quality>
              <gt>4.2372697591781616e-01</gt></_>
            <_><var>92</var>
              <quality>6.5399003028869629e-01</quality>
              <le>1.0871942043304443e+00</le></_>
            <_><var>66</var>
              <quality>6.5358507633209229e-01</quality>
              <le>9.1298139095306396e-01</le></_>
            <_><var>67</var>
              <quality>6.5358507633209229e-01</quality>
              <gt>7.1416419744491577e-01</gt></_>
            <_><var>10</var>
              <quality>6.5277516841888428e-01</quality>
              <le>8.6963009834289551e-01</le></_>
            <_><var>24</var>
              <quality>6.5115535259246826e-01</quality>
              <le>9.1085678339004517e-01</le></_>
            <_><var>57</var>
              <quality>6.4994055032730103e-01</quality>
              <le>8.8237631320953369e-01</le></_>
            <_><var>99</var>
              <quality>6.4953559637069702e-01</quality>
              <gt>4.8007455468177795e-01</gt></_>
            <_><var>46</var>
              <quality>6.4913064241409302e-01</quality>
              <le>8.8024944067001343e-01</le></_>
            <_><var>25</var>
              <quality>6.4872574806213379e-01</quality>
              <gt>6.4859783649444580e-01</gt></_>
            <_><var>58</var>
              <quality>6.4751088619232178e-01</quality>
              <gt>5.8649981021881104e-01</gt></_>
            <_><var>74</var>
              <quality>6.4710593223571777e-01</quality>
              <le>1.1154344081878662e+00</le></_>
            <_><var>53</var>
              <quality>6.4629602432250977e-01</quality>
              <le>2.5014501810073853e-01</le></_>
            <_><var>90</var>
              <quality>6.4589107036590576e-01</quality>
              <gt>7.0679491758346558e-01</gt></_>
            <_><var>56</var>
              <quality>6.4548611640930176e-01</quality>
              <le>9.9131280183792114e-01</le></_>
            <_><var>48</var>
              <quality>6.4508116245269775e-01</quality>
              <gt>7.4351239204406738e-01</gt></_>
            <_><var>33</var>
              <quality>6.4427131414413452e-01</quality>
              <le>9.3454945087432861e-01</le></_>
            <_><var>12</var>
              <quality>6.4386636018753052e-01</quality>
              <gt>6.6254991292953491e-01</gt></_>
            <_><var>37</var>
              <quality>6.4346140623092651e-01</quality>
              <gt>5.9756982326507568e-01</gt></_>
            <_><var>18</var>
              <quality>6.4224654436111450e-01</quality>
              <le>6.6285645961761475e-01</le></_>
            <_><var>30</var>
              <quality>6.4224654436111450e-01</quality>
              <le>2.6256659626960754e-01</le></_>
            <_><var>14</var>
              <quality>6.4184165000915527e-01</quality>
              <le>6.5294164419174194e-01</le></_>
            <_><var>80</var>
              <quality>6.4184165000915527e-01</quality>
              <le>1.0794482231140137e+00</le></_>
            <_><var>29</var>
              <quality>6.4022177457809448e-01</quality>
              <le>7.6928603649139404e-01</le></_>
            <_><var>27</var>
              <quality>6.4022177457809448e-01</quality>
              <gt>2.3097757995128632e-01</gt></_>
            <_><var>19</var>
              <quality>6.3981682062149048e-01</quality>
              <le>1.0721565485000610e+00</le></_>
            <_><var>44</var>
              <quality>6.3941192626953125e-01</quality>
              <le>1.2229042053222656e+00</le></_>
            <_><var>93</var>
              <quality>6.3900697231292725e-01</quality>
              <gt>8.8143086433410645e-01</gt></_>
            <_><var>82</var>
              <quality>6.3900697231292725e-01</quality>
              <gt>8.7453889846801758e-01</gt></_>
            <_><var>51</var>
              <quality>6.3900697231292725e-01</quality>
              <le>5.5028980970382690e-01</le></_>
            <_><var>23</var>
              <quality>6.3900697231292725e-01</quality>
              <le>1.0753571987152100e+00</le></_>
            <_><var>97</var>
              <quality>6.3860201835632324e-01</quality>
              <le>5.2548122406005859e-01</le></_>
            <_><var>60</var>
              <quality>6.3819706439971924e-01</quality>
              <le>7.9546821117401123e-01</le></_>
            <_><var>52</var>
              <quality>6.3819706439971924e-01</quality>
              <le>9.1268986463546753e-01</le></_>
            <_><var>8</var>
              <quality>6.3819706439971924e-01</quality>
              <le>1.0861778259277344e+00</le></_>
            <_><var>0</var>
              <quality>6.3819706439971924e-01</quality>
              <le>7.7927201986312866e-01</le></_>
            <_><var>32</var>
              <quality>6.3779211044311523e-01</quality>
              <le>5.0764840841293335e-01</le></_>
            <_><var>16</var>
              <quality>6.3738721609115601e-01</quality>
              <gt>7.3740944266319275e-02</gt></_>
            <_><var>6</var>
              <quality>6.3698226213455200e-01</quality>
              <le>4.4967788457870483e-01</le></_>
            <_><var>31</var>
              <quality>6.3698226213455200e-01</quality>
              <le>6.0912370681762695e-01</le></_>
            <_><var>42</var>
              <quality>6.3698226213455200e-01</quality>
              <le>3.2132846117019653e-01</le></_>
            <_><var>47</var>
              <quality>6.3698226213455200e-01</quality>
              <le>1.4329289197921753e+00</le></_>
            <_><var>65</var>
              <quality>6.3698226213455200e-01</quality>
              <le>1.4170458316802979e+00</le></_>
            <_><var>79</var>
              <quality>6.3698226213455200e-01</quality>
              <le>1.2685067653656006e+00</le></_>
            <_><var>81</var>
              <quality>6.3698226213455200e-01</quality>
              <le>1.6831228733062744e+00</le></_>
            <_><var>91</var>
              <quality>6.3698226213455200e-01</quality>
              <le>1.4666950702667236e+00</le></_>
            <_><var>5</var>
              <quality>6.3657730817794800e-01</quality>
              <le>5.1607710123062134e-01</le></_>
            <_><var>7</var>
              <quality>6.3657730817794800e-01</quality>
              <le>6.3017737865447998e-01</le></_>
            <_><var>11</var>
              <quality>6.3657730817794800e-01</quality>
              <le>1.3652882575988770e+00</le></_>
            <_><var>15</var>
              <quality>6.3657730817794800e-01</quality>
              <le>9.1450941562652588e-01</le></_>
            <_><var>21</var>
              <quality>6.3657730817794800e-01</quality>
              <le>4.8552757501602173e-01</le></_>
            <_><var>36</var>
              <quality>6.3657730817794800e-01</quality>
              <le>1.1908450126647949e+00</le></_>
            <_><var>39</var>
              <quality>6.3657730817794800e-01</quality>
              <le>8.2547265291213989e-01</le></_>
            <_><var>41</var>
              <quality>6.3657730817794800e-01</quality>
              <gt>2.1617843210697174e-01</gt></_>
            <_><var>43</var>
              <quality>6.3657730817794800e-01</quality>
              <le>8.9429891109466553e-01</le></_>
            <_><var>50</var>
              <quality>6.3657730817794800e-01</quality>
              <gt>1.7510423064231873e-01</gt></_>
            <_><var>61</var>
              <quality>6.3657730817794800e-01</quality>
              <le>1.3328254222869873e+00</le></_>
            <_><var>63</var>
              <quality>6.3657730817794800e-01</quality>
              <le>4.0596866607666016e-01</le></_>
            <_><var>69</var>
              <quality>6.3657730817794800e-01</quality>
              <le>8.9146852493286133e-01</le></_>
            <_><var>75</var>
              <quality>6.3657730817794800e-01</quality>
              <le>1.2998301982879639e+00</le></_>
            <_><var>77</var>
              <quality>6.3657730817794800e-01</quality>
              <le>1.1634100675582886e+00</le></_>
            <_><var>78</var>
              <quality>6.3657730817794800e-01</quality>
              <le>1.4143015146255493e+00</le></_>
            <_><var>84</var>
              <quality>6.3657730817794800e-01</quality>
              <le>7.4284380674362183e-01</le></_>
            <_><var>88</var>
              <quality>6.3657730817794800e-01</quality>
              <gt>7.0017755031585693e-01</gt></_></splits></_>
        <_>
          <depth>1</depth>
          <sample_count>1571</sample_count>
          <value>-1.7505541462762140e+00</value>
          <norm_class_idx>0</norm_class_idx>
          <Tn>0</Tn>
          <complexity>0</complexity>
          <alpha>0.</alpha>
          <node_risk>0.</node_risk>
          <tree_risk>0.</tree_risk>
          <tree_error>0.</tree_error></_>
        <_>
          <depth>1</depth>
          <sample_count>569</sample_count>
          <value>-6.2864393154683362e-01</value>
          <norm_class_idx>0</norm_class_idx>
          <Tn>0</Tn>
          <complexity>0</complexity>
          <alpha>0.</alpha>
          <node_risk>0.</node_risk>
          <tree_risk>0.</tree_risk>
          <tree_error>0.</tree_error></_></nodes></_>
    <_>
      <best_tree_idx>-1</best_tree_idx>
      <nodes>
        <_>
          <depth>0</depth>
          <sample_count>2140</sample_count>
          <value>-1.3766765505352130e-14</value>
          <norm_class_idx>0</norm_class_idx>
          <Tn>0</Tn>
          <complexity>0</complexity>
          <alpha>0.</alpha>
          <node_risk>0.</node_risk>
          <tree_risk>0.</tree_risk>
          <tree_error>0.</tree_error>
          <splits>
            <_><var>66</var>
              <quality>5.9875673055648804e-01</quality>
              <le>7.8524470329284668e-01</le></_>
            <_><var>24</var>
              <quality>5.6276494264602661e-01</quality>
              <le>7.6904088258743286e-01</le></_>
            <_><var>57</var>
              <quality>5.4766482114791870e-01</quality>
              <le>7.5579088926315308e-01</le></_>
            <_><var>46</var>
              <quality>5.3745871782302856e-01</quality>
              <le>7.7742648124694824e-01</le></_>
            <_><var>10</var>
              <quality>5.3562504053115845e-01</quality>
              <le>7.6929962635040283e-01</le></_>
            <_><var>35</var>
              <quality>5.2252113819122314e-01</quality>
              <le>7.5073313713073730e-01</le></_>
            <_><var>92</var>
              <quality>5.1915466785430908e-01</quality>
              <le>9.6071648597717285e-01</le></_>
            <_><var>65</var>
              <quality>5.1317054033279419e-01</quality>
              <le>1.0975384712219238e+00</le></_>
            <_><var>56</var>
              <quality>5.0590449571609497e-01</quality>
              <le>9.2137742042541504e-01</le></_>
            <_><var>23</var>
              <quality>4.9931240081787109e-01</quality>
              <le>1.0132462978363037e+00</le></_>
            <_><var>36</var>
              <quality>4.9682137370109558e-01</quality>
              <le>9.2666327953338623e-01</le></_>
            <_><var>80</var>
              <quality>4.9532479047775269e-01</quality>
              <le>9.5367169380187988e-01</le></_>
            <_><var>11</var>
              <quality>4.9066829681396484e-01</quality>
              <le>1.0023849010467529e+00</le></_>
            <_><var>93</var>
              <quality>4.8945248126983643e-01</quality>
              <le>1.0247437953948975e+00</le></_>
            <_><var>58</var>
              <quality>4.8848804831504822e-01</quality>
              <le>6.9026887416839600e-01</le></_>
            <_><var>87</var>
              <quality>4.8746418952941895e-01</quality>
              <le>9.2304456233978271e-01</le></_>
            <_><var>91</var>
              <quality>4.8342272639274597e-01</quality>
              <le>1.3063194751739502e+00</le></_>
            <_><var>25</var>
              <quality>4.8183450102806091e-01</quality>
              <le>7.4151825904846191e-01</le></_>
            <_><var>67</var>
              <quality>4.8008137941360474e-01</quality>
              <le>8.0497169494628906e-01</le></_>
            <_><var>73</var>
              <quality>4.7703561186790466e-01</quality>
              <le>9.3593335151672363e-01</le></_>
            <_><var>37</var>
              <quality>4.7614827752113342e-01</quality>
              <le>6.7774897813796997e-01</le></_>
            <_><var>12</var>
              <quality>4.7322133183479309e-01</quality>
              <le>7.5487780570983887e-01</le></_>
            <_><var>81</var>
              <quality>4.7074842453002930e-01</quality>
              <le>1.2712657451629639e+00</le></_>
            <_><var>68</var>
              <quality>4.7004547715187073e-01</quality>
              <le>1.0185723304748535e+00</le></_>
            <_><var>86</var>
              <quality>4.6968141198158264e-01</quality>
              <le>1.0443224906921387e+00</le></_>
            <_><var>47</var>
              <quality>4.6769785881042480e-01</quality>
              <le>1.0785031318664551e+00</le></_>
            <_><var>94</var>
              <quality>4.6313014626502991e-01</quality>
              <le>1.2063008546829224e+00</le></_>
            <_><var>48</var>
              <quality>4.6252539753913879e-01</quality>
              <le>8.0459767580032349e-01</le></_>
            <_><var>88</var>
              <quality>4.6170690655708313e-01</quality>
              <le>8.6629557609558105e-01</le></_>
            <_><var>26</var>
              <quality>4.6014282107353210e-01</quality>
              <le>9.6283698081970215e-01</le></_>
            <_><var>82</var>
              <quality>4.5817691087722778e-01</quality>
              <le>1.0001282691955566e+00</le></_>
            <_><var>75</var>
              <quality>4.5758458971977234e-01</quality>
              <le>8.3724939823150635e-01</le></_>
            <_><var>74</var>
              <quality>4.5639005303382874e-01</quality>
              <le>1.0110161304473877e+00</le></_>
            <_><var>59</var>
              <quality>4.5326745510101318e-01</quality>
              <le>9.2695128917694092e-01</le></_>
            <_><var>90</var>
              <quality>4.4576835632324219e-01</quality>
              <le>7.8335893154144287e-01</le></_>
            <_><var>13</var>
              <quality>4.4532802700996399e-01</quality>
              <le>9.9611878395080566e-01</le></_>
            <_><var>38</var>
              <quality>4.3940293788909912e-01</quality>
              <le>9.0403139591217041e-01</le></_>
            <_><var>49</var>
              <quality>4.3840852379798889e-01</quality>
              <le>9.9272853136062622e-01</le></_>
            <_><var>55</var>
              <quality>4.3569409847259521e-01</quality>
              <le>4.0261262655258179e-01</le></_>
            <_><var>83</var>
              <quality>4.3268102407455444e-01</quality>
              <le>1.2444375753402710e+00</le></_>
            <_><var>89</var>
              <quality>4.3027141690254211e-01</quality>
              <le>1.0709364414215088e+00</le></_>
            <_><var>22</var>
              <quality>4.2901372909545898e-01</quality>
              <le>4.8398786783218384e-01</le></_>
            <_><var>33</var>
              <quality>4.2711865901947021e-01</quality>
              <le>8.7915027141571045e-01</le></_>
            <_><var>76</var>
              <quality>4.2656782269477844e-01</quality>
              <le>1.1019375324249268e+00</le></_>
            <_><var>64</var>
              <quality>4.2548501491546631e-01</quality>
              <le>5.7094812393188477e-01</le></_>
            <_><var>8</var>
              <quality>4.2414760589599609e-01</quality>
              <le>9.9991780519485474e-01</le></_>
            <_><var>44</var>
              <quality>4.1714656352996826e-01</quality>
              <le>1.1391184329986572e+00</le></_>
            <_><var>78</var>
              <quality>4.1605001688003540e-01</quality>
              <le>1.2508459091186523e+00</le></_>
            <_><var>85</var>
              <quality>4.1373187303543091e-01</quality>
              <le>4.8515754938125610e-01</le></_>
            <_><var>34</var>
              <quality>4.1327351331710815e-01</quality>
              <le>4.0150597691535950e-01</le></_>
            <_><var>2</var>
              <quality>4.0993484854698181e-01</quality>
              <gt>1.4975342154502869e-01</gt></_>
            <_><var>72</var>
              <quality>4.0988686680793762e-01</quality>
              <le>5.7453680038452148e-01</le></_>
            <_><var>79</var>
              <quality>4.0899527072906494e-01</quality>
              <le>7.6215887069702148e-01</le></_>
            <_><var>3</var>
              <quality>4.0897735953330994e-01</quality>
              <le>5.7204884290695190e-01</le></_>
            <_><var>21</var>
              <quality>4.0897309780120850e-01</quality>
              <le>3.0432647466659546e-01</le></_>
            <_><var>4</var>
              <quality>4.0741020441055298e-01</quality>
              <le>8.5294651985168457e-01</le></_>
            <_><var>0</var>
              <quality>4.0724939107894897e-01</quality>
              <le>6.8212485313415527e-01</le></_>
            <_><var>52</var>
              <quality>4.0702340006828308e-01</quality>
              <le>8.7069296836853027e-01</le></_>
            <_><var>14</var>
              <quality>4.0574726462364197e-01</quality>
              <le>5.6826364994049072e-01</le></_>
            <_><var>97</var>
              <quality>4.0332618355751038e-01</quality>
              <le>2.9029065370559692e-01</le></_>
            <_><var>29</var>
              <quality>4.0283101797103882e-01</quality>
              <le>7.1227180957794189e-01</le></_>
            <_><var>27</var>
              <quality>4.0258768200874329e-01</quality>
              <gt>2.8957620263099670e-01</gt></_>
            <_><var>28</var>
              <quality>4.0151911973953247e-01</quality>
              <le>4.4166111946105957e-01</le></_>
            <_><var>16</var>
              <quality>4.0037384629249573e-01</quality>
              <gt>1.4284110069274902e-01</gt></_>
            <_><var>39</var>
              <quality>3.9976400136947632e-01</quality>
              <le>7.1996372938156128e-01</le></_>
            <_><var>101</var>
              <quality>3.9955601096153259e-01</quality>
              <gt>3.4665730595588684e-01</gt></_>
            <_><var>50</var>
              <quality>3.9944562315940857e-01</quality>
              <gt>2.8490322828292847e-01</gt></_>
            <_><var>9</var>
              <quality>3.9899051189422607e-01</quality>
              <le>4.8855322599411011e-01</le></_>
            <_><var>19</var>
              <quality>3.9653080701828003e-01</quality>
              <le>9.8138940334320068e-01</le></_>
            <_><var>42</var>
              <quality>3.9648923277854919e-01</quality>
              <le>1.9365522265434265e-01</le></_>
            <_><var>98</var>
              <quality>3.9573752880096436e-01</quality>
              <le>3.7686145305633545e-01</le></_>
            <_><var>96</var>
              <quality>3.9423018693923950e-01</quality>
              <le>4.5061698555946350e-01</le></_>
            <_><var>63</var>
              <quality>3.9155492186546326e-01</quality>
              <le>1.9662660360336304e-01</le></_>
            <_><var>71</var>
              <quality>3.9113864302635193e-01</quality>
              <le>7.5179362297058105e-01</le></_>
            <_><var>99</var>
              <quality>3.9105880260467529e-01</quality>
              <gt>6.6175949573516846e-01</gt></_>
            <_><var>51</var>
              <quality>3.8959857821464539e-01</quality>
              <le>3.6884742975234985e-01</le></_>
            <_><var>61</var>
              <quality>3.8950663805007935e-01</quality>
              <le>1.1274086236953735e+00</le></_>
            <_><var>100</var>
              <quality>3.8926759362220764e-01</quality>
              <gt>3.3963346481323242e-01</gt></_>
            <_><var>84</var>
              <quality>3.8870742917060852e-01</quality>
              <le>4.2088234424591064e-01</le></_>
            <_><var>95</var>
              <quality>3.8717454671859741e-01</quality>
              <le>4.1312870383262634e-01</le></_>
            <_><var>32</var>
              <quality>3.8713708519935608e-01</quality>
              <le>3.6285990476608276e-01</le></_>
            <_><var>102</var>
              <quality>3.8686656951904297e-01</quality>
              <gt>3.5118019580841064e-01</gt></_>
            <_><var>1</var>
              <quality>3.8619154691696167e-01</quality>
              <gt>1.4972260594367981e-01</gt></_>
            <_><var>15</var>
              <quality>3.8492259383201599e-01</quality>
              <le>8.3146631717681885e-01</le></_>
            <_><var>45</var>
              <quality>3.8481917977333069e-01</quality>
              <le>5.8653652667999268e-01</le></_>
            <_><var>6</var>
              <quality>3.8404461741447449e-01</quality>
              <le>2.7750879526138306e-01</le></_>
            <_><var>103</var>
              <quality>3.8315692543983459e-01</quality>
              <gt>3.8404783606529236e-01</gt></_>
            <_><var>17</var>
              <quality>3.8306224346160889e-01</quality>
              <gt>1.7265447974205017e-01</gt></_>
            <_><var>69</var>
              <quality>3.8299691677093506e-01</quality>
              <le>3.7139689922332764e-01</le></_>
            <_><var>54</var>
              <quality>3.8270163536071777e-01</quality>
              <le>3.8861042261123657e-01</le></_>
            <_><var>70</var>
              <quality>3.8269391655921936e-01</quality>
              <gt>4.3601405620574951e-01</gt></_>
            <_><var>60</var>
              <quality>3.8136982917785645e-01</quality>
              <gt>7.6281511783599854e-01</gt></_>
            <_><var>18</var>
              <quality>3.8122984766960144e-01</quality>
              <le>5.0462007522583008e-01</le></_>
            <_><var>104</var>
              <quality>3.8079625368118286e-01</quality>
              <le>6.9108344614505768e-03</le></_>
            <_><var>43</var>
              <quality>3.8041397929191589e-01</quality>
              <gt>7.6848304271697998e-01</gt></_>
            <_><var>7</var>
              <quality>3.8040941953659058e-01</quality>
              <gt>6.5397185087203979e-01</gt></_>
            <_><var>31</var>
              <quality>3.7941801548004150e-01</quality>
              <gt>5.0551694631576538e-01</gt></_>
            <_><var>5</var>
              <quality>3.7900185585021973e-01</quality>
              <le>1.6748577356338501e-01</le></_>
            <_><var>53</var>
              <quality>3.7878233194351196e-01</quality>
              <gt>2.5125271081924438e-01</gt></_>
            <_><var>30</var>
              <quality>3.7874928116798401e-01</quality>
              <gt>2.7643269300460815e-01</gt></_>
            <_><var>77</var>
              <quality>3.7725263833999634e-01</quality>
              <le>3.8804692029953003e-01</le></_></splits></_>
        <_>
          <depth>1</depth>
          <sample_count>1213</sample_count>
          <value>-6.6212916581314174e-01</value>
          <norm_class_idx>0</norm_class_idx>
          <Tn>0</Tn>
          <complexity>0</complexity>
          <alpha>0.</alpha>
          <node_risk>0.</node_risk>
          <tree_risk>0.</tree_risk>
          <tree_error>0.</tree_error></_>
        <_>
          <depth>1</depth>
          <sample_count>927</sample_count>
          <value>3.5485087179912267e-01</value>
          <norm_class_idx>1</norm_class_idx>
          <Tn>0</Tn>
          <complexity>0</complexity>
          <alpha>0.</alpha>
          <node_risk>0.</node_risk>
          <tree_risk>0.</tree_risk>
          <tree_error>0.</tree_error></_></nodes></_>
    <_>
      <best_tree_idx>-1</best_tree_idx>
      <nodes>
        <_>
          <depth>0</depth>
          <sample_count>2140</sample_count>
          <value>-6.4392935428259497e-15</value>
          <norm_class_idx>0</norm_class_idx>
          <Tn>0</Tn>
          <complexity>0</complexity>
          <alpha>0.</alpha>
          <node_risk>0.</node_risk>
          <tree_risk>0.</tree_risk>
          <tree_error>0.</tree_error>
          <splits>
            <_><var>51</var>
              <quality>5.5103248357772827e-01</quality>
              <le>4.2472106218338013e-01</le></_>
            <_><var>18</var>
              <quality>5.1524323225021362e-01</quality>
              <le>5.4009902477264404e-01</le></_>
            <_><var>60</var>
              <quality>4.8403835296630859e-01</quality>
              <le>6.6356837749481201e-01</le></_>
            <_><var>32</var>
              <quality>4.7269734740257263e-01</quality>
              <le>4.2611479759216309e-01</le></_>
            <_><var>70</var>
              <quality>4.6709948778152466e-01</quality>
              <le>3.1699305772781372e-01</le></_>
            <_><var>71</var>
              <quality>4.6148172020912170e-01</quality>
              <le>7.8265130519866943e-01</le></_>
            <_><var>28</var>
              <quality>4.5739656686782837e-01</quality>
              <le>4.3726772069931030e-01</le></_>
            <_><var>7</var>
              <quality>4.5503842830657959e-01</quality>
              <le>5.3740978240966797e-01</le></_>
            <_><var>27</var>
              <quality>4.5131874084472656e-01</quality>
              <gt>2.8510832786560059e-01</gt></_>
            <_><var>14</var>
              <quality>4.5089510083198547e-01</quality>
              <le>5.6258010864257812e-01</le></_>
            <_><var>29</var>
              <quality>4.5024541020393372e-01</quality>
              <le>7.1513712406158447e-01</le></_>
            <_><var>3</var>
              <quality>4.4902467727661133e-01</quality>
              <le>5.6113743782043457e-01</le></_>
            <_><var>0</var>
              <quality>4.4790068268775940e-01</quality>
              <le>7.0066481828689575e-01</le></_>
            <_><var>50</var>
              <quality>4.4571533799171448e-01</quality>
              <gt>3.0464485287666321e-01</gt></_>
            <_><var>39</var>
              <quality>4.4553098082542419e-01</quality>
              <le>6.9556498527526855e-01</le></_>
            <_><var>76</var>
              <quality>4.4474828243255615e-01</quality>
              <le>1.0164182186126709e+00</le></_>
            <_><var>43</var>
              <quality>4.4132864475250244e-01</quality>
              <le>6.6572618484497070e-01</le></_>
            <_><var>89</var>
              <quality>4.3992987275123596e-01</quality>
              <le>1.0295627117156982e+00</le></_>
            <_><var>33</var>
              <quality>4.3777918815612793e-01</quality>
              <le>8.3313697576522827e-01</le></_>
            <_><var>41</var>
              <quality>4.3702614307403564e-01</quality>
              <gt>3.9434269070625305e-01</gt></_>
            <_><var>52</var>
              <quality>4.3504744768142700e-01</quality>
              <le>8.1919932365417480e-01</le></_>
            <_><var>77</var>
              <quality>4.3371474742889404e-01</quality>
              <le>7.6884281635284424e-01</le></_>
            <_><var>104</var>
              <quality>4.3361490964889526e-01</quality>
              <le>1.8013690412044525e-01</le></_>
            <_><var>4</var>
              <quality>4.3044665455818176e-01</quality>
              <le>8.4834754467010498e-01</le></_>
            <_><var>1</var>
              <quality>4.3013459444046021e-01</quality>
              <gt>1.5703102946281433e-01</gt></_>
            <_><var>2</var>
              <quality>4.2952829599380493e-01</quality>
              <gt>1.5410567820072174e-01</gt></_>
            <_><var>94</var>
              <quality>4.2942315340042114e-01</quality>
              <le>1.1832849979400635e+00</le></_>
            <_><var>59</var>
              <quality>4.2882725596427917e-01</quality>
              <le>8.6295491456985474e-01</le></_>
            <_><var>19</var>
              <quality>4.2778804898262024e-01</quality>
              <le>9.3863213062286377e-01</le></_>
            <_><var>83</var>
              <quality>4.2761412262916565e-01</quality>
              <le>1.1715390682220459e+00</le></_>
            <_><var>16</var>
              <quality>4.2426231503486633e-01</quality>
              <gt>1.5624368190765381e-01</gt></_>
            <_><var>69</var>
              <quality>4.2411872744560242e-01</quality>
              <gt>4.9671882390975952e-01</gt></_>
            <_><var>17</var>
              <quality>4.2377266287803650e-01</quality>
              <gt>1.5461355447769165e-01</gt></_>
            <_><var>74</var>
              <quality>4.2255380749702454e-01</quality>
              <le>9.7731113433837891e-01</le></_>
            <_><var>15</var>
              <quality>4.2209175229072571e-01</quality>
              <le>8.4730124473571777e-01</le></_>
            <_><var>86</var>
              <quality>4.2105329036712646e-01</quality>
              <le>9.9337601661682129e-01</le></_>
            <_><var>26</var>
              <quality>4.1873741149902344e-01</quality>
              <le>9.2031073570251465e-01</le></_>
            <_><var>38</var>
              <quality>4.1742420196533203e-01</quality>
              <le>8.7602919340133667e-01</le></_>
            <_><var>87</var>
              <quality>4.1636636853218079e-01</quality>
              <le>8.6705529689788818e-01</le></_>
            <_><var>56</var>
              <quality>4.1606745123863220e-01</quality>
              <le>8.5549414157867432e-01</le></_>
            <_><var>61</var>
              <quality>4.1529467701911926e-01</quality>
              <le>1.1115075349807739e+00</le></_>
            <_><var>8</var>
              <quality>4.1386795043945312e-01</quality>
              <le>9.6357488632202148e-01</le></_>
            <_><var>36</var>
              <quality>4.1190561652183533e-01</quality>
              <le>8.4447556734085083e-01</le></_>
            <_><var>78</var>
              <quality>4.1144195199012756e-01</quality>
              <le>1.1774780750274658e+00</le></_>
            <_><var>103</var>
              <quality>4.1143661737442017e-01</quality>
              <le>2.7233946323394775e-01</le></_>
            <_><var>49</var>
              <quality>4.1117936372756958e-01</quality>
              <le>9.6201562881469727e-01</le></_>
            <_><var>92</var>
              <quality>4.1077491641044617e-01</quality>
              <le>8.9913463592529297e-01</le></_>
            <_><var>13</var>
              <quality>4.1058069467544556e-01</quality>
              <le>9.2537438869476318e-01</le></_>
            <_><var>68</var>
              <quality>4.1014438867568970e-01</quality>
              <le>9.8620104789733887e-01</le></_>
            <_><var>62</var>
              <quality>4.0979820489883423e-01</quality>
              <gt>4.1798102855682373e-01</gt></_>
            <_><var>98</var>
              <quality>4.0905687212944031e-01</quality>
              <le>5.1519954204559326e-01</le></_>
            <_><var>23</var>
              <quality>4.0878480672836304e-01</quality>
              <le>9.4054615497589111e-01</le></_>
            <_><var>73</var>
              <quality>4.0770703554153442e-01</quality>
              <le>8.5418021678924561e-01</le></_>
            <_><var>102</var>
              <quality>4.0705400705337524e-01</quality>
              <le>2.5275453925132751e-01</le></_>
            <_><var>57</var>
              <quality>4.0678489208221436e-01</quality>
              <le>6.9359326362609863e-01</le></_>
            <_><var>96</var>
              <quality>4.0668952465057373e-01</quality>
              <le>4.2353737354278564e-01</le></_>
            <_><var>24</var>
              <quality>4.0597966313362122e-01</quality>
              <le>7.1715807914733887e-01</le></_>
            <_><var>53</var>
              <quality>4.0561887621879578e-01</quality>
              <le>1.2597954273223877e-01</le></_>
            <_><var>91</var>
              <quality>4.0540218353271484e-01</quality>
              <le>1.1943284273147583e+00</le></_>
            <_><var>42</var>
              <quality>4.0511155128479004e-01</quality>
              <le>1.6348245739936829e-01</le></_>
            <_><var>63</var>
              <quality>4.0489977598190308e-01</quality>
              <le>1.5684406459331512e-01</le></_>
            <_><var>66</var>
              <quality>4.0338650345802307e-01</quality>
              <le>7.3138344287872314e-01</le></_>
            <_><var>81</var>
              <quality>4.0327721834182739e-01</quality>
              <le>1.1842908859252930e+00</le></_>
            <_><var>47</var>
              <quality>4.0318956971168518e-01</quality>
              <le>1.0249397754669189e+00</le></_>
            <_><var>44</var>
              <quality>4.0290904045104980e-01</quality>
              <le>1.0964659452438354e+00</le></_>
            <_><var>84</var>
              <quality>4.0280479192733765e-01</quality>
              <gt>5.0672113895416260e-01</gt></_>
            <_><var>11</var>
              <quality>4.0260821580886841e-01</quality>
              <le>9.1846811771392822e-01</le></_>
            <_><var>80</var>
              <quality>4.0213382244110107e-01</quality>
              <le>8.8385981321334839e-01</le></_>
            <_><var>20</var>
              <quality>4.0135592222213745e-01</quality>
              <le>1.6445049643516541e-01</le></_>
            <_><var>65</var>
              <quality>4.0058228373527527e-01</quality>
              <le>1.0258902311325073e+00</le></_>
            <_><var>54</var>
              <quality>3.9987203478813171e-01</quality>
              <gt>4.5272377133369446e-01</gt></_>
            <_><var>5</var>
              <quality>3.9952552318572998e-01</quality>
              <gt>3.1444069743156433e-01</gt></_>
            <_><var>101</var>
              <quality>3.9932101964950562e-01</quality>
              <le>2.6828068494796753e-01</le></_>
            <_><var>45</var>
              <quality>3.9812976121902466e-01</quality>
              <gt>7.7632874250411987e-01</gt></_>
            <_><var>35</var>
              <quality>3.9811199903488159e-01</quality>
              <le>6.5929830074310303e-01</le></_>
            <_><var>48</var>
              <quality>3.9802640676498413e-01</quality>
              <gt>9.5043051242828369e-01</gt></_>
            <_><var>46</var>
              <quality>3.9789548516273499e-01</quality>
              <le>6.7749869823455811e-01</le></_>
            <_><var>10</var>
              <quality>3.9784428477287292e-01</quality>
              <le>6.6810578107833862e-01</le></_>
            <_><var>31</var>
              <quality>3.9781424403190613e-01</quality>
              <gt>4.8578524589538574e-01</gt></_>
            <_><var>12</var>
              <quality>3.9728283882141113e-01</quality>
              <gt>9.1315811872482300e-01</gt></_>
            <_><var>30</var>
              <quality>3.9726829528808594e-01</quality>
              <le>1.3367375731468201e-01</le></_>
            <_><var>21</var>
              <quality>3.9714181423187256e-01</quality>
              <le>2.4596402049064636e-01</le></_>
            <_><var>97</var>
              <quality>3.9706861972808838e-01</quality>
              <gt>4.0389192104339600e-01</gt></_>
            <_><var>9</var>
              <quality>3.9664289355278015e-01</quality>
              <gt>7.4901330471038818e-01</gt></_>
            <_><var>79</var>
              <quality>3.9663213491439819e-01</quality>
              <gt>1.0503805875778198e+00</gt></_>
            <_><var>6</var>
              <quality>3.9657479524612427e-01</quality>
              <le>2.1752578020095825e-01</le></_>
            <_><var>37</var>
              <quality>3.9637771248817444e-01</quality>
              <gt>8.3834618330001831e-01</gt></_>
            <_><var>93</var>
              <quality>3.9630562067031860e-01</quality>
              <le>8.9765751361846924e-01</le></_>
            <_><var>99</var>
              <quality>3.9559540152549744e-01</quality>
              <le>4.4511395692825317e-01</le></_>
            <_><var>95</var>
              <quality>3.9522305130958557e-01</quality>
              <gt>6.7819434404373169e-01</gt></_>
            <_><var>82</var>
              <quality>3.9505353569984436e-01</quality>
              <gt>1.2702896595001221e+00</gt></_>
            <_><var>67</var>
              <quality>3.9499068260192871e-01</quality>
              <gt>9.8465853929519653e-01</gt></_>
            <_><var>25</var>
              <quality>3.9479401707649231e-01</quality>
              <gt>9.3622732162475586e-01</gt></_>
            <_><var>34</var>
              <quality>3.9460945129394531e-01</quality>
              <gt>6.6938787698745728e-01</gt></_>
            <_><var>100</var>
              <quality>3.9390936493873596e-01</quality>
              <gt>4.1073071956634521e-01</gt></_>
            <_><var>72</var>
              <quality>3.9388984441757202e-01</quality>
              <gt>8.1570887565612793e-01</gt></_>
            <_><var>75</var>
              <quality>3.9384552836418152e-01</quality>
              <gt>1.1261961460113525e+00</gt></_>
            <_><var>64</var>
              <quality>3.9350461959838867e-01</quality>
              <le>4.2365208268165588e-01</le></_>
            <_><var>58</var>
              <quality>3.9326968789100647e-01</quality>
              <gt>1.0908098220825195e+00</gt></_>
            <_><var>88</var>
              <quality>3.9326968789100647e-01</quality>
              <gt>1.2917773723602295e+00</gt></_>
            <_><var>22</var>
              <quality>3.9309877157211304e-01</quality>
              <le>3.6953574419021606e-01</le></_>
            <_><var>90</var>
              <quality>3.9309674501419067e-01</quality>
              <le>6.5585410594940186e-01</le></_>
            <_><var>85</var>
              <quality>3.9264953136444092e-01</quality>
              <gt>9.3271112442016602e-01</gt></_>
            <_><var>55</var>
              <quality>3.9238917827606201e-01</quality>
              <le>2.0297092199325562e-01</le></_></splits></_>
        <_>
          <depth>1</depth>
          <sample_count>1029</sample_count>
          <value>-5.5240350353472645e-01</value>
          <norm_class_idx>0</norm_class_idx>
          <Tn>0</Tn>
          <complexity>0</complexity>
          <alpha>0.</alpha>
          <node_risk>0.</node_risk>
          <tree_risk>0.</tree_risk>
          <tree_error>0.</tree_error></_>
        <_>
          <depth>1</depth>
          <sample_count>1111</sample_count>
          <value>2.0605489839212110e-01</value>
          <norm_class_idx>1</norm_class_idx>
          <Tn>0</Tn>
          <complexity>0</complexity>
          <alpha>0.</alpha>
          <node_risk>0.</node_risk>
          <tree_risk>0.</tree_risk>
          <tree_error>0.</tree_error></_></nodes></_>
    <_>
      <best_tree_idx>-1</best_tree_idx>
      <nodes>
        <_>
          <depth>0</depth>
          <sample_count>1558</sample_count>
          <value>3.6718587915639193e-02</value>
          <norm_class_idx>1</norm_class_idx>
          <Tn>0</Tn>
          <complexity>0</complexity>
          <alpha>0.</alpha>
          <node_risk>0.</node_risk>
          <tree_risk>0.</tree_risk>
          <tree_error>0.</tree_error>
          <splits>
            <_><var>100</var>
              <quality>5.2961039543151855e-01</quality>
              <le>3.3963346481323242e-01</le></_>
            <_><var>99</var>
              <quality>4.6211513876914978e-01</quality>
              <le>6.4563798904418945e-01</le></_>
            <_><var>101</var>
              <quality>4.5934903621673584e-01</quality>
              <le>3.7076026201248169e-01</le></_>
            <_><var>95</var>
              <quality>4.5231568813323975e-01</quality>
              <le>6.0003596544265747e-01</le></_>
            <_><var>64</var>
              <quality>4.4733610749244690e-01</quality>
              <gt>5.5063748359680176e-01</gt></_>
            <_><var>22</var>
              <quality>4.4051423668861389e-01</quality>
              <gt>4.3532240390777588e-01</gt></_>
            <_><var>81</var>
              <quality>4.3858242034912109e-01</quality>
              <le>1.4132304191589355e+00</le></_>
            <_><var>67</var>
              <quality>4.3794837594032288e-01</quality>
              <gt>7.1652400493621826e-01</gt></_>
            <_><var>25</var>
              <quality>4.3773582577705383e-01</quality>
              <gt>6.6418915987014771e-01</gt></_>
            <_><var>55</var>
              <quality>4.3745413422584534e-01</quality>
              <gt>3.1738632917404175e-01</gt></_>
            <_><var>78</var>
              <quality>4.3668952584266663e-01</quality>
              <le>1.3659738302230835e+00</le></_>
            <_><var>61</var>
              <quality>4.3641421198844910e-01</quality>
              <le>1.1893475055694580e+00</le></_>
            <_><var>19</var>
              <quality>4.3605276942253113e-01</quality>
              <le>1.0605169534683228e+00</le></_>
            <_><var>58</var>
              <quality>4.3470418453216553e-01</quality>
              <gt>5.9457957744598389e-01</gt></_>
            <_><var>91</var>
              <quality>4.3452075123786926e-01</quality>
              <le>1.4146623611450195e+00</le></_>
            <_><var>44</var>
              <quality>4.3444576859474182e-01</quality>
              <le>1.1982856988906860e+00</le></_>
            <_><var>83</var>
              <quality>4.3430653214454651e-01</quality>
              <le>1.4033167362213135e+00</le></_>
            <_><var>90</var>
              <quality>4.3389835953712463e-01</quality>
              <gt>7.0889276266098022e-01</gt></_>
            <_><var>85</var>
              <quality>4.3339684605598450e-01</quality>
              <gt>4.2267858982086182e-01</gt></_>
            <_><var>5</var>
              <quality>4.3320536613464355e-01</quality>
              <le>3.2618865370750427e-01</le></_>
            <_><var>102</var>
              <quality>4.3259742856025696e-01</quality>
              <le>3.7913072109222412e-01</le></_>
            <_><var>52</var>
              <quality>4.3255743384361267e-01</quality>
              <le>9.5499372482299805e-01</le></_>
            <_><var>88</var>
              <quality>4.3213909864425659e-01</quality>
              <gt>7.2878187894821167e-01</gt></_>
            <_><var>41</var>
              <quality>4.3187421560287476e-01</quality>
              <le>4.6755865216255188e-01</le></_>
            <_><var>49</var>
              <quality>4.3185251951217651e-01</quality>
              <le>1.2219870090484619e+00</le></_>
            <_><var>103</var>
              <quality>4.3176659941673279e-01</quality>
              <le>4.0974479913711548e-01</le></_>
            <_><var>77</var>
              <quality>4.3155938386917114e-01</quality>
              <le>8.9703536033630371e-01</le></_>
            <_><var>104</var>
              <quality>4.3144994974136353e-01</quality>
              <le>3.8431930541992188e-01</le></_>
            <_><var>13</var>
              <quality>4.3127948045730591e-01</quality>
              <le>1.2001154422760010e+00</le></_>
            <_><var>38</var>
              <quality>4.3124124407768250e-01</quality>
              <le>1.1455428600311279e+00</le></_>
            <_><var>8</var>
              <quality>4.3118509650230408e-01</quality>
              <le>1.0840975046157837e+00</le></_>
            <_><var>72</var>
              <quality>4.3117937445640564e-01</quality>
              <gt>4.3123120069503784e-01</gt></_>
            <_><var>93</var>
              <quality>4.3111228942871094e-01</quality>
              <gt>8.8554334640502930e-01</gt></_>
            <_><var>37</var>
              <quality>4.3100720643997192e-01</quality>
              <gt>5.9300929307937622e-01</gt></_>
            <_><var>76</var>
              <quality>4.3081435561180115e-01</quality>
              <le>1.3064928054809570e+00</le></_>
            <_><var>33</var>
              <quality>4.3080002069473267e-01</quality>
              <le>9.7643065452575684e-01</le></_>
            <_><var>75</var>
              <quality>4.3040129542350769e-01</quality>
              <gt>7.4190425872802734e-01</gt></_>
            <_><var>17</var>
              <quality>4.3036812543869019e-01</quality>
              <gt>9.3212969601154327e-02</gt></_>
            <_><var>12</var>
              <quality>4.3032160401344299e-01</quality>
              <gt>6.3624686002731323e-01</gt></_>
            <_><var>15</var>
              <quality>4.3027582764625549e-01</quality>
              <le>9.1048693656921387e-01</le></_>
            <_><var>79</var>
              <quality>4.3008986115455627e-01</quality>
              <le>1.0503805875778198e+00</le></_>
            <_><var>69</var>
              <quality>4.2972052097320557e-01</quality>
              <le>6.1351674795150757e-01</le></_>
            <_><var>82</var>
              <quality>4.2952215671539307e-01</quality>
              <gt>8.8423669338226318e-01</gt></_>
            <_><var>45</var>
              <quality>4.2948451638221741e-01</quality>
              <le>8.4072440862655640e-01</le></_>
            <_><var>48</var>
              <quality>4.2937448620796204e-01</quality>
              <gt>6.9250571727752686e-01</gt></_>
            <_><var>30</var>
              <quality>4.2921444773674011e-01</quality>
              <le>2.8493955731391907e-01</le></_>
            <_><var>71</var>
              <quality>4.2908164858818054e-01</quality>
              <gt>6.4078259468078613e-01</gt></_>
            <_><var>59</var>
              <quality>4.2902091145515442e-01</quality>
              <le>1.1688987016677856e+00</le></_>
            <_><var>9</var>
              <quality>4.2881709337234497e-01</quality>
              <le>7.6925051212310791e-01</le></_>
            <_><var>46</var>
              <quality>4.2867124080657959e-01</quality>
              <gt>6.7527961730957031e-01</gt></_>
            <_><var>43</var>
              <quality>4.2866981029510498e-01</quality>
              <le>7.9690790176391602e-01</le></_>
            <_><var>16</var>
              <quality>4.2847585678100586e-01</quality>
              <gt>9.3194738030433655e-02</gt></_>
            <_><var>89</var>
              <quality>4.2843109369277954e-01</quality>
              <le>1.3295757770538330e+00</le></_>
            <_><var>60</var>
              <quality>4.2832985520362854e-01</quality>
              <gt>5.6439191102981567e-01</gt></_>
            <_><var>92</var>
              <quality>4.2831096053123474e-01</quality>
              <gt>8.6193072795867920e-01</gt></_>
            <_><var>39</var>
              <quality>4.2827022075653076e-01</quality>
              <le>7.8918957710266113e-01</le></_>
            <_><var>62</var>
              <quality>4.2824679613113403e-01</quality>
              <gt>2.6859998703002930e-01</gt></_>
            <_><var>29</var>
              <quality>4.2823752760887146e-01</quality>
              <gt>6.5040802955627441e-01</gt></_>
            <_><var>31</var>
              <quality>4.2820623517036438e-01</quality>
              <le>5.4695039987564087e-01</le></_>
            <_><var>27</var>
              <quality>4.2814517021179199e-01</quality>
              <le>3.4967333078384399e-01</le></_>
            <_><var>94</var>
              <quality>4.2812916636466980e-01</quality>
              <le>1.5010451078414917e+00</le></_>
            <_><var>50</var>
              <quality>4.2803025245666504e-01</quality>
              <gt>2.0927560329437256e-01</gt></_>
            <_><var>34</var>
              <quality>4.2797946929931641e-01</quality>
              <le>7.0175737142562866e-01</le></_>
            <_><var>18</var>
              <quality>4.2795395851135254e-01</quality>
              <gt>3.9428296685218811e-01</gt></_>
            <_><var>80</var>
              <quality>4.2788198590278625e-01</quality>
              <gt>8.1769716739654541e-01</gt></_>
            <_><var>47</var>
              <quality>4.2775148153305054e-01</quality>
              <le>1.2524476051330566e+00</le></_>
            <_><var>68</var>
              <quality>4.2773371934890747e-01</quality>
              <gt>9.1076242923736572e-01</gt></_>
            <_><var>6</var>
              <quality>4.2770245671272278e-01</quality>
              <le>4.1290235519409180e-01</le></_>
            <_><var>10</var>
              <quality>4.2768910527229309e-01</quality>
              <gt>6.4808440208435059e-01</gt></_>
            <_><var>26</var>
              <quality>4.2763593792915344e-01</quality>
              <le>1.2340176105499268e+00</le></_>
            <_><var>42</var>
              <quality>4.2759767174720764e-01</quality>
              <le>3.3780056238174438e-01</le></_>
            <_><var>66</var>
              <quality>4.2758277058601379e-01</quality>
              <gt>6.7161250114440918e-01</gt></_>
            <_><var>51</var>
              <quality>4.2757806181907654e-01</quality>
              <gt>2.7251857519149780e-01</gt></_>
            <_><var>35</var>
              <quality>4.2757269740104675e-01</quality>
              <gt>6.4210212230682373e-01</gt></_>
            <_><var>20</var>
              <quality>4.2755702137947083e-01</quality>
              <gt>1.5280881524085999e-01</gt></_>
            <_><var>73</var>
              <quality>4.2750531435012817e-01</quality>
              <le>1.3873705863952637e+00</le></_>
            <_><var>97</var>
              <quality>4.2740646004676819e-01</quality>
              <le>5.4811370372772217e-01</le></_>
            <_><var>36</var>
              <quality>4.2740052938461304e-01</quality>
              <le>1.2017315626144409e+00</le></_>
            <_><var>98</var>
              <quality>4.2735239863395691e-01</quality>
              <le>8.5869920253753662e-01</le></_>
            <_><var>2</var>
              <quality>4.2731779813766479e-01</quality>
              <le>2.0208051800727844e-01</le></_>
            <_><var>23</var>
              <quality>4.2731410264968872e-01</quality>
              <le>1.3270401954650879e+00</le></_>
            <_><var>56</var>
              <quality>4.2731410264968872e-01</quality>
              <le>1.2595782279968262e+00</le></_>
            <_><var>65</var>
              <quality>4.2731410264968872e-01</quality>
              <le>1.4170458316802979e+00</le></_>
            <_><var>84</var>
              <quality>4.2730757594108582e-01</quality>
              <gt>2.7203798294067383e-01</gt></_>
            <_><var>4</var>
              <quality>4.2730757594108582e-01</quality>
              <gt>7.9064273834228516e-01</gt></_>
            <_><var>86</var>
              <quality>4.2729571461677551e-01</quality>
              <le>1.3134322166442871e+00</le></_>
            <_><var>7</var>
              <quality>4.2724952101707458e-01</quality>
              <le>6.8775302171707153e-01</le></_>
            <_><var>24</var>
              <quality>4.2721113562583923e-01</quality>
              <gt>6.3545632362365723e-01</gt></_>
            <_><var>1</var>
              <quality>4.2717355489730835e-01</quality>
              <le>1.8868060410022736e-01</le></_>
            <_><var>57</var>
              <quality>4.2713984847068787e-01</quality>
              <gt>6.3834452629089355e-01</gt></_>
            <_><var>11</var>
              <quality>4.2711696028709412e-01</quality>
              <le>1.2684686183929443e+00</le></_>
            <_><var>74</var>
              <quality>4.2711696028709412e-01</quality>
              <le>1.4199483394622803e+00</le></_>
            <_><var>87</var>
              <quality>4.2704245448112488e-01</quality>
              <gt>7.6197218894958496e-01</gt></_>
            <_><var>21</var>
              <quality>4.2703056335449219e-01</quality>
              <le>4.8552757501602173e-01</le></_>
            <_><var>63</var>
              <quality>4.2703056335449219e-01</quality>
              <le>4.0596866607666016e-01</le></_>
            <_><var>14</var>
              <quality>4.2702400684356689e-01</quality>
              <gt>4.5306169986724854e-01</gt></_>
            <_><var>32</var>
              <quality>4.2695644497871399e-01</quality>
              <le>5.6369930505752563e-01</le></_>
            <_><var>28</var>
              <quality>4.2683935165405273e-01</quality>
              <gt>3.0210888385772705e-01</gt></_>
            <_><var>70</var>
              <quality>4.2683935165405273e-01</quality>
              <gt>1.3909073173999786e-01</gt></_>
            <_><var>96</var>
              <quality>4.2681831121444702e-01</quality>
              <gt>2.1410661935806274e-01</gt></_>
            <_><var>54</var>
              <quality>4.2676803469657898e-01</quality>
              <gt>2.9985606670379639e-01</gt></_></splits></_>
        <_>
          <depth>1</depth>
          <sample_count>1156</sample_count>
          <value>1.9172793309484767e-01</value>
          <norm_class_idx>1</norm_class_idx>
          <Tn>0</Tn>
          <complexity>0</complexity>
          <alpha>0.</alpha>
          <node_risk>0.</node_risk>
          <tree_risk>0.</tree_risk>
          <tree_error>0.</tree_error></_>
        <_>
          <depth>1</depth>
          <sample_count>402</sample_count>
          <value>-6.8823183270376076e-01</value>
          <norm_class_idx>0</norm_class_idx>
          <Tn>0</Tn>
          <complexity>0</complexity>
          <alpha>0.</alpha>
          <node_risk>0.</node_risk>
          <tree_risk>0.</tree_risk>
          <tree_error>0.</tree_error></_></nodes></_>
    <_>
      <best_tree_idx>-1</best_tree_idx>
      <nodes>
        <_>
          <depth>0</depth>
          <sample_count>1425</sample_count>
          <value>1.1162809990752545e-02</value>
          <norm_class_idx>1</norm_class_idx>
          <Tn>0</Tn>
          <complexity>0</complexity>
          <alpha>0.</alpha>
          <node_risk>0.</node_risk>
          <tree_risk>0.</tree_risk>
          <tree_error>0.</tree_error>
          <splits>
            <_><var>55</var>
              <quality>5.0193446874618530e-01</quality>
              <le>4.0738815069198608e-01</le></_>
            <_><var>22</var>
              <quality>4.6887847781181335e-01</quality>
              <le>5.0141954421997070e-01</le></_>
            <_><var>64</var>
              <quality>4.5232045650482178e-01</quality>
              <le>6.0049259662628174e-01</le></_>
            <_><var>90</var>
              <quality>4.5191365480422974e-01</quality>
              <le>8.0021870136260986e-01</le></_>
            <_><var>58</var>
              <quality>4.4211685657501221e-01</quality>
              <le>6.8940210342407227e-01</le></_>
            <_><var>67</var>
              <quality>4.3542385101318359e-01</quality>
              <le>8.0951905250549316e-01</le></_>
            <_><var>25</var>
              <quality>4.3309462070465088e-01</quality>
              <le>7.4792540073394775e-01</le></_>
            <_><var>85</var>
              <quality>4.3254360556602478e-01</quality>
              <le>5.1546013355255127e-01</le></_>
            <_><var>93</var>
              <quality>4.3224519491195679e-01</quality>
              <le>1.0011034011840820e+00</le></_>
            <_><var>34</var>
              <quality>4.2682492733001709e-01</quality>
              <le>3.9844048023223877e-01</le></_>
            <_><var>12</var>
              <quality>4.2407873272895813e-01</quality>
              <le>7.5178074836730957e-01</le></_>
            <_><var>37</var>
              <quality>4.2264530062675476e-01</quality>
              <le>6.5061962604522705e-01</le></_>
            <_><var>88</var>
              <quality>4.1418591141700745e-01</quality>
              <le>8.3006066083908081e-01</le></_>
            <_><var>9</var>
              <quality>4.1361287236213684e-01</quality>
              <le>4.7991216182708740e-01</le></_>
            <_><var>48</var>
              <quality>4.1206175088882446e-01</quality>
              <le>7.9971802234649658e-01</le></_>
            <_><var>82</var>
              <quality>4.0609496831893921e-01</quality>
              <le>1.0018959045410156e+00</le></_>
            <_><var>72</var>
              <quality>4.0437632799148560e-01</quality>
              <le>5.0547647476196289e-01</le></_>
            <_><var>75</var>
              <quality>4.0206694602966309e-01</quality>
              <le>8.2717013359069824e-01</le></_>
            <_><var>95</var>
              <quality>4.0022775530815125e-01</quality>
              <gt>5.7649004459381104e-01</gt></_>
            <_><var>79</var>
              <quality>3.9621585607528687e-01</quality>
              <le>7.5916719436645508e-01</le></_>
            <_><var>66</var>
              <quality>3.9579218626022339e-01</quality>
              <le>7.8527176380157471e-01</le></_>
            <_><var>24</var>
              <quality>3.8742774724960327e-01</quality>
              <le>7.5781953334808350e-01</le></_>
            <_><var>56</var>
              <quality>3.8680782914161682e-01</quality>
              <le>8.9699578285217285e-01</le></_>
            <_><var>65</var>
              <quality>3.8526135683059692e-01</quality>
              <le>1.0871654748916626e+00</le></_>
            <_><var>80</var>
              <quality>3.8454347848892212e-01</quality>
              <le>9.3075037002563477e-01</le></_>
            <_><var>91</var>
              <quality>3.8431051373481750e-01</quality>
              <le>1.2820348739624023e+00</le></_>
            <_><var>57</var>
              <quality>3.8385251164436340e-01</quality>
              <le>7.3016130924224854e-01</le></_>
            <_><var>46</var>
              <quality>3.8350403308868408e-01</quality>
              <le>7.6126039028167725e-01</le></_>
            <_><var>92</var>
              <quality>3.8348403573036194e-01</quality>
              <le>9.4202661514282227e-01</le></_>
            <_><var>10</var>
              <quality>3.8338577747344971e-01</quality>
              <le>7.8022170066833496e-01</le></_>
            <_><var>23</var>
              <quality>3.8320937752723694e-01</quality>
              <le>1.0013569593429565e+00</le></_>
            <_><var>36</var>
              <quality>3.8225689530372620e-01</quality>
              <le>9.0127146244049072e-01</le></_>
            <_><var>11</var>
              <quality>3.8211259245872498e-01</quality>
              <le>9.9064099788665771e-01</le></_>
            <_><var>45</var>
              <quality>3.8004863262176514e-01</quality>
              <le>5.8625805377960205e-01</le></_>
            <_><var>35</var>
              <quality>3.7897977232933044e-01</quality>
              <le>7.7286314964294434e-01</le></_>
            <_><var>81</var>
              <quality>3.7885996699333191e-01</quality>
              <le>1.2560248374938965e+00</le></_>
            <_><var>94</var>
              <quality>3.7644362449645996e-01</quality>
              <le>1.2262605428695679e+00</le></_>
            <_><var>68</var>
              <quality>3.7522548437118530e-01</quality>
              <le>1.0037543773651123e+00</le></_>
            <_><var>47</var>
              <quality>3.7358734011650085e-01</quality>
              <le>1.0719553232192993e+00</le></_>
            <_><var>8</var>
              <quality>3.7004947662353516e-01</quality>
              <le>9.8715674877166748e-01</le></_>
            <_><var>0</var>
              <quality>3.6942246556282043e-01</quality>
              <le>6.6279685497283936e-01</le></_>
            <_><var>26</var>
              <quality>3.6623659729957581e-01</quality>
              <le>9.6185648441314697e-01</le></_>
            <_><var>96</var>
              <quality>3.6613920331001282e-01</quality>
              <gt>5.6802296638488770e-01</gt></_>
            <_><var>51</var>
              <quality>3.6546537280082703e-01</quality>
              <le>3.0345809459686279e-01</le></_>
            <_><var>14</var>
              <quality>3.6471238732337952e-01</quality>
              <le>5.0078302621841431e-01</le></_>
            <_><var>52</var>
              <quality>3.6443302035331726e-01</quality>
              <le>7.5899839401245117e-01</le></_>
            <_><var>84</var>
              <quality>3.6428511142730713e-01</quality>
              <le>4.0583550930023193e-01</le></_>
            <_><var>33</var>
              <quality>3.6373999714851379e-01</quality>
              <le>7.9680222272872925e-01</le></_>
            <_><var>44</var>
              <quality>3.6318433284759521e-01</quality>
              <le>1.0563600063323975e+00</le></_>
            <_><var>71</var>
              <quality>3.6316785216331482e-01</quality>
              <le>6.6607761383056641e-01</le></_>
            <_><var>28</var>
              <quality>3.6302718520164490e-01</quality>
              <le>3.2191252708435059e-01</le></_>
            <_><var>86</var>
              <quality>3.6261653900146484e-01</quality>
              <le>8.8544768095016479e-01</le></_>
            <_><var>74</var>
              <quality>3.6253920197486877e-01</quality>
              <le>8.9639592170715332e-01</le></_>
            <_><var>78</var>
              <quality>3.6235702037811279e-01</quality>
              <le>1.1366263628005981e+00</le></_>
            <_><var>3</var>
              <quality>3.6224538087844849e-01</quality>
              <le>4.8416042327880859e-01</le></_>
            <_><var>59</var>
              <quality>3.6212715506553650e-01</quality>
              <le>9.2351150512695312e-01</le></_>
            <_><var>2</var>
              <quality>3.6180934309959412e-01</quality>
              <gt>1.5918973088264465e-01</gt></_>
            <_><var>29</var>
              <quality>3.6165836453437805e-01</quality>
              <le>6.7971062660217285e-01</le></_>
            <_><var>21</var>
              <quality>3.6109405755996704e-01</quality>
              <le>2.3701167106628418e-01</le></_>
            <_><var>27</var>
              <quality>3.6109051108360291e-01</quality>
              <gt>3.2072532176971436e-01</gt></_>
            <_><var>87</var>
              <quality>3.6102753877639771e-01</quality>
              <le>8.2901644706726074e-01</le></_>
            <_><var>5</var>
              <quality>3.6092448234558105e-01</quality>
              <gt>3.1976979970932007e-01</gt></_>
            <_><var>32</var>
              <quality>3.6046931147575378e-01</quality>
              <le>2.9945212602615356e-01</le></_>
            <_><var>39</var>
              <quality>3.6045229434967041e-01</quality>
              <le>6.4366781711578369e-01</le></_>
            <_><var>50</var>
              <quality>3.6045229434967041e-01</quality>
              <gt>3.5698080062866211e-01</gt></_>
            <_><var>43</var>
              <quality>3.6018100380897522e-01</quality>
              <gt>7.6392316818237305e-01</gt></_>
            <_><var>41</var>
              <quality>3.5988107323646545e-01</quality>
              <gt>4.4622138142585754e-01</gt></_>
            <_><var>100</var>
              <quality>3.5982078313827515e-01</quality>
              <gt>3.5310730338096619e-01</gt></_>
            <_><var>17</var>
              <quality>3.5979247093200684e-01</quality>
              <le>9.1624408960342407e-02</le></_>
            <_><var>15</var>
              <quality>3.5959374904632568e-01</quality>
              <gt>9.1048693656921387e-01</gt></_>
            <_><var>4</var>
              <quality>3.5955420136451721e-01</quality>
              <le>8.4183919429779053e-01</le></_>
            <_><var>18</var>
              <quality>3.5937324166297913e-01</quality>
              <le>4.6559330821037292e-01</le></_>
            <_><var>16</var>
              <quality>3.5925456881523132e-01</quality>
              <gt>1.7999844253063202e-01</gt></_>
            <_><var>98</var>
              <quality>3.5840561985969543e-01</quality>
              <gt>6.7964065074920654e-01</gt></_>
            <_><var>38</var>
              <quality>3.5837298631668091e-01</quality>
              <le>9.2244434356689453e-01</le></_>
            <_><var>102</var>
              <quality>3.5820913314819336e-01</quality>
              <le>2.3704530298709869e-01</le></_>
            <_><var>19</var>
              <quality>3.5768029093742371e-01</quality>
              <gt>1.0730776786804199e+00</gt></_>
            <_><var>70</var>
              <quality>3.5761326551437378e-01</quality>
              <le>2.1065193414688110e-01</le></_>
            <_><var>13</var>
              <quality>3.5707196593284607e-01</quality>
              <le>9.5244693756103516e-01</le></_>
            <_><var>103</var>
              <quality>3.5622876882553101e-01</quality>
              <le>2.7011686563491821e-01</le></_>
            <_><var>83</var>
              <quality>3.5615116357803345e-01</quality>
              <le>1.1481051445007324e+00</le></_>
            <_><var>60</var>
              <quality>3.5587430000305176e-01</quality>
              <le>5.6923735141754150e-01</le></_>
            <_><var>89</var>
              <quality>3.5552546381950378e-01</quality>
              <le>9.8181712627410889e-01</le></_>
            <_><var>49</var>
              <quality>3.5528609156608582e-01</quality>
              <le>1.0317752361297607e+00</le></_>
            <_><var>99</var>
              <quality>3.5509383678436279e-01</quality>
              <le>4.4247657060623169e-01</le></_>
            <_><var>73</var>
              <quality>3.5486346483230591e-01</quality>
              <le>8.4592276811599731e-01</le></_>
            <_><var>61</var>
              <quality>3.5474696755409241e-01</quality>
              <le>1.0669558048248291e+00</le></_>
            <_><var>76</var>
              <quality>3.5374513268470764e-01</quality>
              <le>9.1348785161972046e-01</le></_>
            <_><var>54</var>
              <quality>3.5361608862876892e-01</quality>
              <le>3.5535943508148193e-01</le></_>
            <_><var>1</var>
              <quality>3.5357162356376648e-01</quality>
              <le>1.0634126514196396e-01</le></_>
            <_><var>69</var>
              <quality>3.5300233960151672e-01</quality>
              <gt>5.7529556751251221e-01</gt></_>
            <_><var>104</var>
              <quality>3.5295158624649048e-01</quality>
              <gt>4.9165737628936768e-01</gt></_>
            <_><var>97</var>
              <quality>3.5291570425033569e-01</quality>
              <gt>5.2548122406005859e-01</gt></_>
            <_><var>7</var>
              <quality>3.5284236073493958e-01</quality>
              <gt>6.8537974357604980e-01</gt></_>
            <_><var>77</var>
              <quality>3.5281935334205627e-01</quality>
              <gt>8.9746737480163574e-01</gt></_></splits></_>
        <_>
          <depth>1</depth>
          <sample_count>362</sample_count>
          <value>3.8711763457355575e-01</value>
          <norm_class_idx>1</norm_class_idx>
          <Tn>0</Tn>
          <complexity>0</complexity>
          <alpha>0.</alpha>
          <node_risk>0.</node_risk>
          <tree_risk>0.</tree_risk>
          <tree_error>0.</tree_error></_>
        <_>
          <depth>1</depth>
          <sample_count>1063</sample_count>
          <value>-1.4120431316161444e-01</value>
          <norm_class_idx>0</norm_class_idx>
          <Tn>0</Tn>
          <complexity>0</complexity>
          <alpha>0.</alpha>
          <node_risk>0.</node_risk>
          <tree_risk>0.</tree_risk>
          <tree_error>0.</tree_error></_></nodes></_>
    <_>
      <best_tree_idx>-1</best_tree_idx>
      <nodes>
        <_>
          <depth>0</depth>
          <sample_count>1584</sample_count>
          <value>-1.9545474691237231e-02</value>
          <norm_class_idx>0</norm_class_idx>
          <Tn>0</Tn>
          <complexity>0</complexity>
          <alpha>0.</alpha>
          <node_risk>0.</node_risk>
          <tree_risk>0.</tree_risk>
          <tree_error>0.</tree_error>
          <splits>
            <_><var>66</var>
              <quality>5.1175987720489502e-01</quality>
              <le>7.3115479946136475e-01</le></_>
            <_><var>24</var>
              <quality>5.0150340795516968e-01</quality>
              <le>7.0925694704055786e-01</le></_>
            <_><var>57</var>
              <quality>4.9487757682800293e-01</quality>
              <le>6.8817174434661865e-01</le></_>
            <_><var>46</var>
              <quality>4.9200528860092163e-01</quality>
              <le>7.1854192018508911e-01</le></_>
            <_><var>92</var>
              <quality>4.8963910341262817e-01</quality>
              <le>8.6415570974349976e-01</le></_>
            <_><var>35</var>
              <quality>4.8693129420280457e-01</quality>
              <le>6.8488562107086182e-01</le></_>
            <_><var>10</var>
              <quality>4.8678311705589294e-01</quality>
              <le>6.6890531778335571e-01</le></_>
            <_><var>25</var>
              <quality>4.8622351884841919e-01</quality>
              <le>6.2638473510742188e-01</le></_>
            <_><var>68</var>
              <quality>4.8592725396156311e-01</quality>
              <le>9.0702724456787109e-01</le></_>
            <_><var>58</var>
              <quality>4.8592311143875122e-01</quality>
              <le>5.6991422176361084e-01</le></_>
            <_><var>93</var>
              <quality>4.8588839173316956e-01</quality>
              <le>8.7892353534698486e-01</le></_>
            <_><var>67</var>
              <quality>4.8564115166664124e-01</quality>
              <le>6.8455702066421509e-01</le></_>
            <_><var>94</var>
              <quality>4.8559278249740601e-01</quality>
              <le>1.0864341259002686e+00</le></_>
            <_><var>73</var>
              <quality>4.8490205407142639e-01</quality>
              <le>8.0899798870086670e-01</le></_>
            <_><var>96</var>
              <quality>4.8484528064727783e-01</quality>
              <le>3.0186772346496582e-01</le></_>
            <_><var>65</var>
              <quality>4.8484340310096741e-01</quality>
              <le>9.9799078702926636e-01</le></_>
            <_><var>12</var>
              <quality>4.8476913571357727e-01</quality>
              <le>6.3797843456268311e-01</le></_>
            <_><var>26</var>
              <quality>4.8462173342704773e-01</quality>
              <le>8.3400905132293701e-01</le></_>
            <_><var>97</var>
              <quality>4.8454472422599792e-01</quality>
              <le>1.4891238510608673e-01</le></_>
            <_><var>82</var>
              <quality>4.8449864983558655e-01</quality>
              <le>8.8423669338226318e-01</le></_>
            <_><var>87</var>
              <quality>4.8449710011482239e-01</quality>
              <le>8.2356768846511841e-01</le></_>
            <_><var>37</var>
              <quality>4.8446521162986755e-01</quality>
              <le>5.5610108375549316e-01</le></_>
            <_><var>80</var>
              <quality>4.8438534140586853e-01</quality>
              <le>8.1781816482543945e-01</le></_>
            <_><var>59</var>
              <quality>4.8429214954376221e-01</quality>
              <le>7.6042699813842773e-01</le></_>
            <_><var>38</var>
              <quality>4.8416051268577576e-01</quality>
              <le>7.4525541067123413e-01</le></_>
            <_><var>48</var>
              <quality>4.8412796854972839e-01</quality>
              <le>6.9250571727752686e-01</le></_>
            <_><var>13</var>
              <quality>4.8408389091491699e-01</quality>
              <le>8.2986927032470703e-01</le></_>
            <_><var>23</var>
              <quality>4.8395541310310364e-01</quality>
              <le>8.9805871248245239e-01</le></_>
            <_><var>89</var>
              <quality>4.8387414216995239e-01</quality>
              <le>8.7321114540100098e-01</le></_>
            <_><var>56</var>
              <quality>4.8367217183113098e-01</quality>
              <le>7.8514182567596436e-01</le></_>
            <_><var>86</var>
              <quality>4.8362013697624207e-01</quality>
              <le>8.7899720668792725e-01</le></_>
            <_><var>76</var>
              <quality>4.8349294066429138e-01</quality>
              <le>8.7478256225585938e-01</le></_>
            <_><var>11</var>
              <quality>4.8308414220809937e-01</quality>
              <le>8.7993085384368896e-01</le></_>
            <_><var>74</var>
              <quality>4.8297187685966492e-01</quality>
              <le>8.9540207386016846e-01</le></_>
            <_><var>36</var>
              <quality>4.8292663693428040e-01</quality>
              <le>7.8228354454040527e-01</le></_>
            <_><var>83</var>
              <quality>4.8275589942932129e-01</quality>
              <le>1.0148491859436035e+00</le></_>
            <_><var>47</var>
              <quality>4.8273512721061707e-01</quality>
              <le>9.7277677059173584e-01</le></_>
            <_><var>49</var>
              <quality>4.8256161808967590e-01</quality>
              <le>8.2153832912445068e-01</le></_>
            <_><var>91</var>
              <quality>4.8253870010375977e-01</quality>
              <le>1.1110424995422363e+00</le></_>
            <_><var>22</var>
              <quality>4.8253700137138367e-01</quality>
              <le>3.7095302343368530e-01</le></_>
            <_><var>98</var>
              <quality>4.8252186179161072e-01</quality>
              <le>3.3725270628929138e-01</le></_>
            <_><var>55</var>
              <quality>4.8250389099121094e-01</quality>
              <le>2.2170290350914001e-01</le></_>
            <_><var>90</var>
              <quality>4.8244187235832214e-01</quality>
              <le>5.6786668300628662e-01</le></_>
            <_><var>88</var>
              <quality>4.8238682746887207e-01</quality>
              <le>6.8066453933715820e-01</le></_>
            <_><var>75</var>
              <quality>4.8235267400741577e-01</quality>
              <le>6.8490123748779297e-01</le></_>
            <_><var>100</var>
              <quality>4.8235222697257996e-01</quality>
              <gt>4.5131659507751465e-01</gt></_>
            <_><var>16</var>
              <quality>4.8231315612792969e-01</quality>
              <le>7.3740944266319275e-02</le></_>
            <_><var>72</var>
              <quality>4.8229506611824036e-01</quality>
              <le>3.5651999711990356e-01</le></_>
            <_><var>85</var>
              <quality>4.8229506611824036e-01</quality>
              <le>3.3192884922027588e-01</le></_>
            <_><var>70</var>
              <quality>4.8229065537452698e-01</quality>
              <le>1.5572200715541840e-01</le></_>
            <_><var>78</var>
              <quality>4.8223704099655151e-01</quality>
              <le>1.0511083602905273e+00</le></_>
            <_><var>54</var>
              <quality>4.8223704099655151e-01</quality>
              <le>2.9745513200759888e-01</le></_>
            <_><var>44</var>
              <quality>4.8223704099655151e-01</quality>
              <le>1.0190682411193848e+00</le></_>
            <_><var>21</var>
              <quality>4.8223704099655151e-01</quality>
              <le>1.8139965832233429e-01</le></_>
            <_><var>81</var>
              <quality>4.8223546147346497e-01</quality>
              <le>1.1327738761901855e+00</le></_>
            <_><var>19</var>
              <quality>4.8220491409301758e-01</quality>
              <le>8.7239170074462891e-01</le></_>
            <_><var>99</var>
              <quality>4.8218378424644470e-01</quality>
              <gt>7.9597681760787964e-01</gt></_>
            <_><var>5</var>
              <quality>4.8218271136283875e-01</quality>
              <le>8.6617879569530487e-02</le></_>
            <_><var>15</var>
              <quality>4.8218271136283875e-01</quality>
              <le>7.7285158634185791e-01</le></_>
            <_><var>17</var>
              <quality>4.8218271136283875e-01</quality>
              <gt>2.2997957468032837e-01</gt></_>
            <_><var>51</var>
              <quality>4.8216667771339417e-01</quality>
              <le>2.3515015840530396e-01</le></_>
            <_><var>0</var>
              <quality>4.8212760686874390e-01</quality>
              <le>6.2373495101928711e-01</le></_></splits></_>
        <_>
          <depth>1</depth>
          <sample_count>285</sample_count>
          <value>-5.7564577324601141e+00</value>
          <norm_class_idx>0</norm_class_idx>
          <Tn>0</Tn>
          <complexity>0</complexity>
          <alpha>0.</alpha>
          <node_risk>0.</node_risk>
          <tree_risk>0.</tree_risk>
          <tree_error>0.</tree_error></_>
        <_>
          <depth>1</depth>
          <sample_count>1299</sample_count>
          <value>4.0789470232826648e-02</value>
          <norm_class_idx>1</norm_class_idx>
          <Tn>0</Tn>
          <complexity>0</complexity>
          <alpha>0.</alpha>
          <node_risk>0.</node_risk>
          <tree_risk>0.</tree_risk>
          <tree_error>0.</tree_error></_></nodes></_>
    <_>
      <best_tree_idx>-1</best_tree_idx>
      <nodes>
        <_>
          <depth>0</depth>
          <sample_count>1230</sample_count>
          <value>9.6186670924919664e-03</value>
          <norm_class_idx>1</norm_class_idx>
          <Tn>0</Tn>
          <complexity>0</complexity>
          <alpha>0.</alpha>
          <node_risk>0.</node_risk>
          <tree_risk>0.</tree_risk>
          <tree_error>0.</tree_error>
          <splits>
            <_><var>75</var>
              <quality>5.1007288694381714e-01</quality>
              <le>9.8196685314178467e-01</le></_>
            <_><var>88</var>
              <quality>4.9121782183647156e-01</quality>
              <le>9.8323857784271240e-01</le></_>
            <_><var>93</var>
              <quality>4.7410517930984497e-01</quality>
              <le>1.1694951057434082e+00</le></_>
            <_><var>58</var>
              <quality>4.7131776809692383e-01</quality>
              <le>8.1834280490875244e-01</le></_>
            <_><var>25</var>
              <quality>4.6756160259246826e-01</quality>
              <le>8.9141309261322021e-01</le></_>
            <_><var>37</var>
              <quality>4.6753731369972229e-01</quality>
              <le>8.0727142095565796e-01</le></_>
            <_><var>67</var>
              <quality>4.6643897891044617e-01</quality>
              <le>9.4959145784378052e-01</le></_>
            <_><var>12</var>
              <quality>4.6447652578353882e-01</quality>
              <le>8.7980413436889648e-01</le></_>
            <_><var>82</var>
              <quality>4.5958891510963440e-01</quality>
              <le>1.1486322879791260e+00</le></_>
            <_><var>74</var>
              <quality>4.5601081848144531e-01</quality>
              <le>1.1603212356567383e+00</le></_>
            <_><var>86</var>
              <quality>4.5494070649147034e-01</quality>
              <le>1.1604669094085693e+00</le></_>
            <_><var>48</var>
              <quality>4.5464462041854858e-01</quality>
              <le>9.1140985488891602e-01</le></_>
            <_><var>92</var>
              <quality>4.5338109135627747e-01</quality>
              <le>1.1069357395172119e+00</le></_>
            <_><var>104</var>
              <quality>4.4906613230705261e-01</quality>
              <gt>6.2389746308326721e-02</gt></_>
            <_><var>57</var>
              <quality>4.4628906250000000e-01</quality>
              <le>9.0722405910491943e-01</le></_>
            <_><var>87</var>
              <quality>4.4622880220413208e-01</quality>
              <le>1.0910820960998535e+00</le></_>
            <_><var>73</var>
              <quality>4.4598805904388428e-01</quality>
              <le>1.0707597732543945e+00</le></_>
            <_><var>23</var>
              <quality>4.4477206468582153e-01</quality>
              <le>1.1320402622222900e+00</le></_>
            <_><var>24</var>
              <quality>4.4334793090820312e-01</quality>
              <le>9.3305444717407227e-01</le></_>
            <_><var>65</var>
              <quality>4.4219595193862915e-01</quality>
              <le>1.2159893512725830e+00</le></_>
            <_><var>56</var>
              <quality>4.4203639030456543e-01</quality>
              <le>1.0405790805816650e+00</le></_>
            <_><var>11</var>
              <quality>4.4179052114486694e-01</quality>
              <le>1.1340003013610840e+00</le></_>
            <_><var>90</var>
              <quality>4.4111001491546631e-01</quality>
              <le>1.0061764717102051e+00</le></_>
            <_><var>97</var>
              <quality>4.3841403722763062e-01</quality>
              <le>4.0231281518936157e-01</le></_>
            <_><var>54</var>
              <quality>4.3691527843475342e-01</quality>
              <le>5.2692383527755737e-01</le></_>
            <_><var>85</var>
              <quality>4.3682342767715454e-01</quality>
              <le>6.7370355129241943e-01</le></_>
            <_><var>91</var>
              <quality>4.3655309081077576e-01</quality>
              <le>1.4309604167938232e+00</le></_>
            <_><var>35</var>
              <quality>4.3647080659866333e-01</quality>
              <le>9.0799850225448608e-01</le></_>
            <_><var>1</var>
              <quality>4.3577069044113159e-01</quality>
              <le>1.7448082566261292e-01</le></_>
            <_><var>47</var>
              <quality>4.3574175238609314e-01</quality>
              <le>1.2209283113479614e+00</le></_>
            <_><var>80</var>
              <quality>4.3509504199028015e-01</quality>
              <le>1.0989329814910889e+00</le></_>
            <_><var>100</var>
              <quality>4.3482786417007446e-01</quality>
              <gt>2.4353452026844025e-01</gt></_>
            <_><var>36</var>
              <quality>4.3473359942436218e-01</quality>
              <le>1.0479342937469482e+00</le></_>
            <_><var>21</var>
              <quality>4.3465030193328857e-01</quality>
              <le>3.8854789733886719e-01</le></_>
            <_><var>66</var>
              <quality>4.3438938260078430e-01</quality>
              <le>9.5843309164047241e-01</le></_>
            <_><var>6</var>
              <quality>4.3417191505432129e-01</quality>
              <le>3.6757653951644897e-01</le></_>
            <_><var>15</var>
              <quality>4.3393379449844360e-01</quality>
              <gt>8.0882418155670166e-01</gt></_>
            <_><var>10</var>
              <quality>4.3376484513282776e-01</quality>
              <le>9.3592834472656250e-01</le></_>
            <_><var>30</var>
              <quality>4.3364915251731873e-01</quality>
              <le>2.8202253580093384e-01</le></_>
            <_><var>46</var>
              <quality>4.3340942263603210e-01</quality>
              <le>9.4448071718215942e-01</le></_>
            <_><var>63</var>
              <quality>4.3338918685913086e-01</quality>
              <le>2.9678094387054443e-01</le></_>
            <_><var>17</var>
              <quality>4.3319663405418396e-01</quality>
              <le>1.8212887644767761e-01</le></_>
            <_><var>81</var>
              <quality>4.3309321999549866e-01</quality>
              <le>1.4643155336380005e+00</le></_>
            <_><var>77</var>
              <quality>4.3306815624237061e-01</quality>
              <gt>6.3323891162872314e-01</gt></_>
            <_><var>42</var>
              <quality>4.3295431137084961e-01</quality>
              <le>2.8558856248855591e-01</le></_>
            <_><var>64</var>
              <quality>4.3185579776763916e-01</quality>
              <le>8.4025168418884277e-01</le></_>
            <_><var>62</var>
              <quality>4.3165925145149231e-01</quality>
              <le>4.7249111533164978e-01</le></_>
            <_><var>31</var>
              <quality>4.3146717548370361e-01</quality>
              <le>5.1921755075454712e-01</le></_>
            <_><var>72</var>
              <quality>4.3122622370719910e-01</quality>
              <le>6.6970551013946533e-01</le></_>
            <_><var>26</var>
              <quality>4.3083375692367554e-01</quality>
              <gt>8.5053396224975586e-01</gt></_>
            <_><var>60</var>
              <quality>4.3077209591865540e-01</quality>
              <le>7.9396641254425049e-01</le></_>
            <_><var>20</var>
              <quality>4.3057087063789368e-01</quality>
              <le>3.6168360710144043e-01</le></_>
            <_><var>43</var>
              <quality>4.3043395876884460e-01</quality>
              <gt>5.8748799562454224e-01</gt></_>
            <_><var>22</var>
              <quality>4.3004992604255676e-01</quality>
              <le>7.1383690834045410e-01</le></_>
            <_><var>68</var>
              <quality>4.2982199788093567e-01</quality>
              <gt>9.2343783378601074e-01</gt></_>
            <_><var>53</var>
              <quality>4.2968830466270447e-01</quality>
              <le>2.7548205852508545e-01</le></_>
            <_><var>84</var>
              <quality>4.2968499660491943e-01</quality>
              <le>6.0350990295410156e-01</le></_>
            <_><var>101</var>
              <quality>4.2963370680809021e-01</quality>
              <gt>2.5555151700973511e-01</gt></_>
            <_><var>19</var>
              <quality>4.2947003245353699e-01</quality>
              <gt>9.1093075275421143e-01</gt></_>
            <_><var>59</var>
              <quality>4.2921310663223267e-01</quality>
              <gt>7.9807829856872559e-01</gt></_>
            <_><var>96</var>
              <quality>4.2854049801826477e-01</quality>
              <le>6.7354893684387207e-01</le></_>
            <_><var>98</var>
              <quality>4.2792445421218872e-01</quality>
              <gt>3.4504675865173340e-01</gt></_>
            <_><var>5</var>
              <quality>4.2773103713989258e-01</quality>
              <le>3.5144579410552979e-01</le></_>
            <_><var>55</var>
              <quality>4.2732387781143188e-01</quality>
              <le>6.4331948757171631e-01</le></_>
            <_><var>50</var>
              <quality>4.2720136046409607e-01</quality>
              <le>3.5942423343658447e-01</le></_>
            <_><var>39</var>
              <quality>4.2720136046409607e-01</quality>
              <gt>6.4090561866760254e-01</gt></_>
            <_><var>27</var>
              <quality>4.2713913321495056e-01</quality>
              <gt>2.0401300489902496e-01</gt></_>
            <_><var>29</var>
              <quality>4.2713913321495056e-01</quality>
              <le>7.9618847370147705e-01</le></_>
            <_><var>69</var>
              <quality>4.2694497108459473e-01</quality>
              <gt>3.1698095798492432e-01</gt></_>
            <_><var>79</var>
              <quality>4.2686548829078674e-01</quality>
              <le>1.0396031141281128e+00</le></_>
            <_><var>7</var>
              <quality>4.2675507068634033e-01</quality>
              <gt>4.3322372436523438e-01</gt></_>
            <_><var>4</var>
              <quality>4.2660588026046753e-01</quality>
              <le>9.1467201709747314e-01</le></_>
            <_><var>2</var>
              <quality>4.2660588026046753e-01</quality>
              <gt>8.5681155323982239e-02</gt></_>
            <_><var>94</var>
              <quality>4.2654636502265930e-01</quality>
              <le>1.4223120212554932e+00</le></_>
            <_><var>102</var>
              <quality>4.2647433280944824e-01</quality>
              <le>4.4458150863647461e-01</le></_>
            <_><var>41</var>
              <quality>4.2639899253845215e-01</quality>
              <gt>2.6226261258125305e-01</gt></_>
            <_><var>71</var>
              <quality>4.2631968855857849e-01</quality>
              <le>9.6887928247451782e-01</le></_>
            <_><var>95</var>
              <quality>4.2620000243186951e-01</quality>
              <le>7.5661051273345947e-01</le></_>
            <_><var>16</var>
              <quality>4.2592161893844604e-01</quality>
              <le>1.8233075737953186e-01</le></_>
            <_><var>83</var>
              <quality>4.2580935359001160e-01</quality>
              <le>1.5137237310409546e+00</le></_>
            <_><var>52</var>
              <quality>4.2577329277992249e-01</quality>
              <le>9.8396497964859009e-01</le></_>
            <_><var>45</var>
              <quality>4.2562550306320190e-01</quality>
              <le>8.4476578235626221e-01</le></_>
            <_><var>89</var>
              <quality>4.2551743984222412e-01</quality>
              <le>1.3898411989212036e+00</le></_>
            <_><var>9</var>
              <quality>4.2549774050712585e-01</quality>
              <le>7.4797236919403076e-01</le></_>
            <_><var>34</var>
              <quality>4.2547520995140076e-01</quality>
              <le>6.8842709064483643e-01</le></_>
            <_><var>32</var>
              <quality>4.2536088824272156e-01</quality>
              <gt>2.8936612606048584e-01</gt></_>
            <_><var>76</var>
              <quality>4.2526301741600037e-01</quality>
              <le>1.3919180631637573e+00</le></_>
            <_><var>78</var>
              <quality>4.2520368099212646e-01</quality>
              <le>1.4448536634445190e+00</le></_>
            <_><var>8</var>
              <quality>4.2510402202606201e-01</quality>
              <le>1.1474328041076660e+00</le></_>
            <_><var>13</var>
              <quality>4.2507284879684448e-01</quality>
              <le>1.2690749168395996e+00</le></_>
            <_><var>38</var>
              <quality>4.2507284879684448e-01</quality>
              <le>1.2249512672424316e+00</le></_>
            <_><var>49</var>
              <quality>4.2507284879684448e-01</quality>
              <le>1.3102948665618896e+00</le></_>
            <_><var>61</var>
              <quality>4.2502653598785400e-01</quality>
              <le>1.2302412986755371e+00</le></_>
            <_><var>33</var>
              <quality>4.2496067285537720e-01</quality>
              <le>1.0265915393829346e+00</le></_>
            <_><var>44</var>
              <quality>4.2486369609832764e-01</quality>
              <le>1.2906825542449951e+00</le></_>
            <_><var>18</var>
              <quality>4.2472034692764282e-01</quality>
              <le>7.6880329847335815e-01</le></_>
            <_><var>14</var>
              <quality>4.2470517754554749e-01</quality>
              <gt>4.6385055780410767e-01</gt></_>
            <_><var>3</var>
              <quality>4.2460778355598450e-01</quality>
              <gt>4.5444566011428833e-01</gt></_>
            <_><var>99</var>
              <quality>4.2457973957061768e-01</quality>
              <le>8.1012982130050659e-01</le></_>
            <_><var>28</var>
              <quality>4.2448005080223083e-01</quality>
              <gt>3.1287971138954163e-01</gt></_></splits></_>
        <_>
          <depth>1</depth>
          <sample_count>1098</sample_count>
          <value>-9.1469543058022504e-02</value>
          <norm_class_idx>0</norm_class_idx>
          <Tn>0</Tn>
          <complexity>0</complexity>
          <alpha>0.</alpha>
          <node_risk>0.</node_risk>
          <tree_risk>0.</tree_risk>
          <tree_error>0.</tree_error></_>
        <_>
          <depth>1</depth>
          <sample_count>132</sample_count>
          <value>5.6230039683605226e-01</value>
          <norm_class_idx>1</norm_class_idx>
          <Tn>0</Tn>
          <complexity>0</complexity>
          <alpha>0.</alpha>
          <node_risk>0.</node_risk>
          <tree_risk>0.</tree_risk>
          <tree_error>0.</tree_error></_></nodes></_>
    <_>
      <best_tree_idx>-1</best_tree_idx>
      <nodes>
        <_>
          <depth>0</depth>
          <sample_count>1098</sample_count>
          <value>2.0490177232529598e-02</value>
          <norm_class_idx>1</norm_class_idx>
          <Tn>0</Tn>
          <complexity>0</complexity>
          <alpha>0.</alpha>
          <node_risk>0.</node_risk>
          <tree_risk>0.</tree_risk>
          <tree_error>0.</tree_error>
          <splits>
            <_><var>75</var>
              <quality>5.0001841783523560e-01</quality>
              <le>8.6638832092285156e-01</le></_>
            <_><var>88</var>
              <quality>4.5935669541358948e-01</quality>
              <le>8.7539315223693848e-01</le></_>
            <_><var>37</var>
              <quality>4.4785699248313904e-01</quality>
              <le>7.0507776737213135e-01</le></_>
            <_><var>12</var>
              <quality>4.4230145215988159e-01</quality>
              <le>7.6746731996536255e-01</le></_>
            <_><var>48</var>
              <quality>4.4068345427513123e-01</quality>
              <le>8.3541965484619141e-01</le></_>
            <_><var>74</var>
              <quality>4.3602997064590454e-01</quality>
              <le>1.0715842247009277e+00</le></_>
            <_><var>82</var>
              <quality>4.3438628315925598e-01</quality>
              <le>1.0412917137145996e+00</le></_>
            <_><var>73</var>
              <quality>4.2778554558753967e-01</quality>
              <le>9.6794128417968750e-01</le></_>
            <_><var>58</var>
              <quality>4.2766290903091431e-01</quality>
              <le>7.4483919143676758e-01</le></_>
            <_><var>25</var>
              <quality>4.2754727602005005e-01</quality>
              <le>7.9264330863952637e-01</le></_>
            <_><var>35</var>
              <quality>4.2486500740051270e-01</quality>
              <le>7.8945147991180420e-01</le></_>
            <_><var>46</var>
              <quality>4.2279490828514099e-01</quality>
