<?xml version="1.0"?>
<opencv_storage>
<my_boost_tree type_id="opencv-ml-boost-tree">
  <boosting_type>RealAdaboost</boosting_type>
  <splitting_criteria>Gini</splitting_criteria>
  <ntrees>100</ntrees>
  <weight_trimming_rate>9.4999999999999996e-01</weight_trimming_rate>
  <is_classifier>1</is_classifier>
  <var_all>105</var_all>
  <var_count>105</var_count>
  <ord_var_count>105</ord_var_count>
  <cat_var_count>0</cat_var_count>
  <training_params>
    <use_surrogates>1</use_surrogates>
    <max_categories>10</max_categories>
    <max_depth>1</max_depth>
    <min_sample_count>10</min_sample_count>
    <cross_validation_folds>0</cross_validation_folds>
    <priors type_id="opencv-matrix">
      <rows>1</rows>
      <cols>2</cols>
      <dt>d</dt>
      <data>
        1. 1.</data></priors></training_params>
  <var_type>
    0 0 0 0 0 0 0 0 0 0 0 0 0 0 0 0 0 0 0 0 0 0 0 0 0 0 0 0 0 0 0 0 0 0
    0 0 0 0 0 0 0 0 0 0 0 0 0 0 0 0 0 0 0 0 0 0 0 0 0 0 0 0 0 0 0 0 0 0
    0 0 0 0 0 0 0 0 0 0 0 0 0 0 0 0 0 0 0 0 0 0 0 0 0 0 0 0 0 0 0 0 0 0
    0 0 0</var_type>
  <cat_count type_id="opencv-matrix">
    <rows>1</rows>
    <cols>1</cols>
    <dt>i</dt>
    <data>
      2</data></cat_count>
  <cat_map type_id="opencv-matrix">
    <rows>1</rows>
    <cols>2</cols>
    <dt>i</dt>
    <data>
      0 1</data></cat_map>
  <trees>
    <_>
      <best_tree_idx>-1</best_tree_idx>
      <nodes>
        <_>
          <depth>0</depth>
          <sample_count>2140</sample_count>
          <value>-4.7710889189310901e-01</value>
          <norm_class_idx>0</norm_class_idx>
          <Tn>0</Tn>
          <complexity>0</complexity>
          <alpha>0.</alpha>
          <node_risk>0.</node_risk>
          <tree_risk>0.</tree_risk>
          <tree_error>0.</tree_error>
          <splits>
            <_><var>99</var>
              <quality>6.8249696493148804e-01</quality>
              <le>6.6882395744323730e-01</le></_>
            <_><var>103</var>
              <quality>6.2636637687683105e-01</quality>
              <le>3.9113429188728333e-01</le></_>
            <_><var>101</var>
              <quality>6.2158250808715820e-01</quality>
              <le>4.0217247605323792e-01</le></_>
            <_><var>102</var>
              <quality>6.0818773508071899e-01</quality>
              <le>3.6575669050216675e-01</le></_>
            <_><var>46</var>
              <quality>6.0308492183685303e-01</quality>
              <gt>6.5638363361358643e-01</gt></_>
            <_><var>66</var>
              <quality>6.0117137432098389e-01</quality>
              <gt>6.6677021980285645e-01</gt></_>
            <_><var>100</var>
              <quality>5.9957677125930786e-01</quality>
              <le>3.6473166942596436e-01</le></_>
            <_><var>80</var>
              <quality>5.9766322374343872e-01</quality>
              <gt>8.3458334207534790e-01</gt></_>
            <_><var>10</var>
              <quality>5.9766322374343872e-01</quality>
              <gt>6.5377092361450195e-01</gt></_>
            <_><var>92</var>
              <quality>5.9606862068176270e-01</quality>
              <gt>8.0029082298278809e-01</gt></_>
            <_><var>24</var>
              <quality>5.9511184692382812e-01</quality>
              <gt>6.6280686855316162e-01</gt></_>
            <_><var>35</var>
              <quality>5.9192258119583130e-01</quality>
              <gt>6.3316166400909424e-01</gt></_>
            <_><var>57</var>
              <quality>5.9096580743789673e-01</quality>
              <gt>6.4061886072158813e-01</gt></_>
            <_><var>78</var>
              <quality>5.8554416894912720e-01</quality>
              <le>1.3787369728088379e+00</le></_>
            <_><var>44</var>
              <quality>5.8522522449493408e-01</quality>
              <le>1.2166898250579834e+00</le></_>
            <_><var>87</var>
              <quality>5.8426839113235474e-01</quality>
              <gt>7.2346299886703491e-01</gt></_>
            <_><var>73</var>
              <quality>5.8426839113235474e-01</quality>
              <gt>7.4955523014068604e-01</gt></_>
            <_><var>33</var>
              <quality>5.8426839113235474e-01</quality>
              <le>1.0038254261016846e+00</le></_>
            <_><var>8</var>
              <quality>5.8394950628280640e-01</quality>
              <le>1.1430265903472900e+00</le></_>
            <_><var>19</var>
              <quality>5.8394950628280640e-01</quality>
              <gt>8.2387912273406982e-01</gt></_>
            <_><var>52</var>
              <quality>5.8394950628280640e-01</quality>
              <gt>6.9250333309173584e-01</gt></_>
            <_><var>69</var>
              <quality>5.8394950628280640e-01</quality>
              <gt>2.5510802865028381e-01</gt></_>
            <_><var>79</var>
              <quality>5.8394950628280640e-01</quality>
              <gt>5.7931476831436157e-01</gt></_>
            <_><var>96</var>
              <quality>5.8394950628280640e-01</quality>
              <le>8.2282829284667969e-01</le></_>
            <_><var>7</var>
              <quality>5.8363062143325806e-01</quality>
              <gt>2.9901471734046936e-01</gt></_>
            <_><var>9</var>
              <quality>5.8363062143325806e-01</quality>
              <gt>2.6849853992462158e-01</gt></_>
            <_><var>21</var>
              <quality>5.8363062143325806e-01</quality>
              <gt>1.8922996520996094e-01</gt></_>
            <_><var>31</var>
              <quality>5.8363062143325806e-01</quality>
              <gt>2.4353203177452087e-01</gt></_>
            <_><var>32</var>
              <quality>5.8363062143325806e-01</quality>
              <gt>2.1683327853679657e-01</gt></_>
            <_><var>34</var>
              <quality>5.8363062143325806e-01</quality>
              <gt>2.2966322302818298e-01</gt></_>
            <_><var>45</var>
              <quality>5.8363062143325806e-01</quality>
              <gt>3.3579784631729126e-01</gt></_>
            <_><var>54</var>
              <quality>5.8363062143325806e-01</quality>
              <gt>2.1464791893959045e-01</gt></_>
            <_><var>58</var>
              <quality>5.8363062143325806e-01</quality>
              <gt>4.7493302822113037e-01</gt></_>
            <_><var>61</var>
              <quality>5.8363062143325806e-01</quality>
              <gt>8.5443520545959473e-01</gt></_>
            <_><var>71</var>
              <quality>5.8363062143325806e-01</quality>
              <gt>4.4443011283874512e-01</gt></_>
            <_><var>77</var>
              <quality>5.8363062143325806e-01</quality>
              <gt>3.8804692029953003e-01</gt></_>
            <_><var>81</var>
              <quality>5.8363062143325806e-01</quality>
              <gt>1.0293917655944824e+00</gt></_>
            <_><var>84</var>
              <quality>5.8363062143325806e-01</quality>
              <gt>2.2944831848144531e-01</gt></_>
            <_><var>86</var>
              <quality>5.8363062143325806e-01</quality>
              <gt>7.3721915483474731e-01</gt></_>
            <_><var>93</var>
              <quality>5.8363062143325806e-01</quality>
              <gt>7.5721263885498047e-01</gt></_>
            <_><var>95</var>
              <quality>5.8363062143325806e-01</quality>
              <gt>1.8311284482479095e-01</gt></_>
            <_><var>5</var>
              <quality>5.8331167697906494e-01</quality>
              <gt>9.9924325942993164e-02</gt></_>
            <_><var>22</var>
              <quality>5.8331167697906494e-01</quality>
              <gt>3.1700092554092407e-01</gt></_>
            <_><var>25</var>
              <quality>5.8331167697906494e-01</quality>
              <gt>5.4800927639007568e-01</gt></_>
            <_><var>26</var>
              <quality>5.8331167697906494e-01</quality>
              <le>1.2340176105499268e+00</le></_>
            <_><var>27</var>
              <quality>5.8331167697906494e-01</quality>
              <gt>2.0237064361572266e-01</gt></_>
            <_><var>28</var>
              <quality>5.8331167697906494e-01</quality>
              <gt>2.9181253910064697e-01</gt></_>
            <_><var>29</var>
              <quality>5.8331167697906494e-01</quality>
              <le>7.9766774177551270e-01</le></_>
            <_><var>39</var>
              <quality>5.8331167697906494e-01</quality>
              <le>8.1325566768646240e-01</le></_>
            <_><var>41</var>
              <quality>5.8331167697906494e-01</quality>
              <gt>2.0320145785808563e-01</gt></_>
            <_><var>42</var>
              <quality>5.8331167697906494e-01</quality>
              <le>3.5077363252639771e-01</le></_>
            <_><var>43</var>
              <quality>5.8331167697906494e-01</quality>
              <gt>4.9909311532974243e-01</gt></_>
            <_><var>50</var>
              <quality>5.8331167697906494e-01</quality>
              <gt>1.8732406198978424e-01</gt></_>
            <_><var>55</var>
              <quality>5.8331167697906494e-01</quality>
              <le>7.9580354690551758e-01</le></_>
            <_><var>63</var>
              <quality>5.8331167697906494e-01</quality>
              <le>3.7001389265060425e-01</le></_>
            <_><var>64</var>
              <quality>5.8331167697906494e-01</quality>
              <le>1.0639486312866211e+00</le></_>
            <_><var>67</var>
              <quality>5.8331167697906494e-01</quality>
              <gt>6.0903656482696533e-01</gt></_>
            <_><var>70</var>
              <quality>5.8331167697906494e-01</quality>
              <gt>1.2372206151485443e-01</gt></_>
            <_><var>90</var>
              <quality>5.8331167697906494e-01</quality>
              <gt>5.4965913295745850e-01</gt></_></splits></_>
        <_>
          <depth>1</depth>
          <sample_count>1829</sample_count>
          <value>-7.1355817782007491e-01</value>
          <norm_class_idx>0</norm_class_idx>
          <Tn>0</Tn>
          <complexity>0</complexity>
          <alpha>0.</alpha>
          <node_risk>0.</node_risk>
          <tree_risk>0.</tree_risk>
          <tree_error>0.</tree_error></_>
        <_>
          <depth>1</depth>
          <sample_count>311</sample_count>
          <value>6.1815084572065071e-01</value>
          <norm_class_idx>1</norm_class_idx>
          <Tn>0</Tn>
          <complexity>0</complexity>
          <alpha>0.</alpha>
          <node_risk>0.</node_risk>
          <tree_risk>0.</tree_risk>
          <tree_error>0.</tree_error></_></nodes></_>
    <_>
      <best_tree_idx>-1</best_tree_idx>
      <nodes>
        <_>
          <depth>0</depth>
          <sample_count>2140</sample_count>
          <value>1.1324274851176469e-14</value>
          <norm_class_idx>1</norm_class_idx>
          <Tn>0</Tn>
          <complexity>0</complexity>
          <alpha>0.</alpha>
          <node_risk>0.</node_risk>
          <tree_risk>0.</tree_risk>
          <tree_error>0.</tree_error>
          <splits>
            <_><var>35</var>
              <quality>5.7891255617141724e-01</quality>
              <le>7.1544706821441650e-01</le></_>
            <_><var>10</var>
              <quality>5.5028003454208374e-01</quality>
              <le>7.2987014055252075e-01</le></_>
            <_><var>46</var>
              <quality>5.3891867399215698e-01</quality>
              <le>7.3766148090362549e-01</le></_>
            <_><var>57</var>
              <quality>5.3490221500396729e-01</quality>
              <le>7.2093856334686279e-01</le></_>
            <_><var>24</var>
              <quality>5.2701967954635620e-01</quality>
              <le>7.3325663805007935e-01</le></_>
            <_><var>66</var>
              <quality>5.1936984062194824e-01</quality>
              <le>7.3575127124786377e-01</le></_>
            <_><var>36</var>
              <quality>4.9931570887565613e-01</quality>
              <le>8.7800925970077515e-01</le></_>
            <_><var>56</var>
              <quality>4.9877467751502991e-01</quality>
              <le>8.8886237144470215e-01</le></_>
            <_><var>23</var>
              <quality>4.9015229940414429e-01</quality>
              <le>9.8342323303222656e-01</le></_>
            <_><var>11</var>
              <quality>4.8966282606124878e-01</quality>
              <le>9.7968661785125732e-01</le></_>
            <_><var>80</var>
              <quality>4.8431324958801270e-01</quality>
              <le>9.1544592380523682e-01</le></_>
            <_><var>73</var>
              <quality>4.8042905330657959e-01</quality>
              <le>8.8031345605850220e-01</le></_>
            <_><var>92</var>
              <quality>4.7735378146171570e-01</quality>
              <le>9.2217588424682617e-01</le></_>
            <_><var>47</var>
              <quality>4.7689965367317200e-01</quality>
              <le>1.0703907012939453e+00</le></_>
            <_><var>65</var>
              <quality>4.7199290990829468e-01</quality>
              <le>1.0762369632720947e+00</le></_>
            <_><var>86</var>
              <quality>4.6689948439598083e-01</quality>
              <le>9.7587054967880249e-01</le></_>
            <_><var>87</var>
              <quality>4.6355623006820679e-01</quality>
              <le>8.8079106807708740e-01</le></_>
            <_><var>81</var>
              <quality>4.6311989426612854e-01</quality>
              <le>1.2657544612884521e+00</le></_>
            <_><var>13</var>
              <quality>4.5286181569099426e-01</quality>
              <le>9.1376310586929321e-01</le></_>
            <_><var>49</var>
              <quality>4.4966095685958862e-01</quality>
              <le>9.6704870462417603e-01</le></_>
            <_><var>74</var>
              <quality>4.4823798537254333e-01</quality>
              <le>9.7651171684265137e-01</le></_>
            <_><var>91</var>
              <quality>4.4573566317558289e-01</quality>
              <le>1.2584552764892578e+00</le></_>
            <_><var>38</var>
              <quality>4.4105711579322815e-01</quality>
              <le>8.4758687019348145e-01</le></_>
            <_><var>83</var>
              <quality>4.3939149379730225e-01</quality>
              <le>1.1546301841735840e+00</le></_>
            <_><var>59</var>
              <quality>4.3909254670143127e-01</quality>
              <le>8.2198834419250488e-01</le></_>
            <_><var>26</var>
              <quality>4.3898120522499084e-01</quality>
              <le>9.0709137916564941e-01</le></_>
            <_><var>68</var>
              <quality>4.3667578697204590e-01</quality>
              <le>9.4999885559082031e-01</le></_>
            <_><var>37</var>
              <quality>4.3439415097236633e-01</quality>
              <le>6.8974250555038452e-01</le></_>
            <_><var>12</var>
              <quality>4.3406388163566589e-01</quality>
              <le>7.3406296968460083e-01</le></_>
            <_><var>58</var>
              <quality>4.3023505806922913e-01</quality>
              <le>6.9254660606384277e-01</le></_>
            <_><var>94</var>
              <quality>4.2830109596252441e-01</quality>
              <le>1.1327762603759766e+00</le></_>
            <_><var>76</var>
              <quality>4.2758923768997192e-01</quality>
              <le>9.6824729442596436e-01</le></_>
            <_><var>82</var>
              <quality>4.2607176303863525e-01</quality>
              <le>9.9999499320983887e-01</le></_>
            <_><var>89</var>
              <quality>4.2556160688400269e-01</quality>
              <le>9.4065988063812256e-01</le></_>
            <_><var>88</var>
              <quality>4.2345297336578369e-01</quality>
              <le>8.3749639987945557e-01</le></_>
            <_><var>95</var>
              <quality>4.2145889997482300e-01</quality>
              <le>4.3876677751541138e-01</le></_>
            <_><var>75</var>
              <quality>4.1883844137191772e-01</quality>
              <le>8.4015393257141113e-01</le></_>
            <_><var>25</var>
              <quality>4.1869825124740601e-01</quality>
              <le>7.5768971443176270e-01</le></_>
            <_><var>48</var>
              <quality>4.1755211353302002e-01</quality>
              <le>7.9859757423400879e-01</le></_>
            <_><var>98</var>
              <quality>4.1366997361183167e-01</quality>
              <le>3.9482218027114868e-01</le></_>
            <_><var>93</var>
              <quality>4.1143381595611572e-01</quality>
              <le>9.9907791614532471e-01</le></_>
            <_><var>67</var>
              <quality>4.0902802348136902e-01</quality>
              <le>8.1586480140686035e-01</le></_>
            <_><var>0</var>
              <quality>4.0277111530303955e-01</quality>
              <le>6.8398040533065796e-01</le></_>
            <_><var>4</var>
              <quality>3.9953637123107910e-01</quality>
              <le>8.4114229679107666e-01</le></_>
            <_><var>3</var>
              <quality>3.9952826499938965e-01</quality>
              <le>5.4239654541015625e-01</le></_>
            <_><var>2</var>
              <quality>3.9875668287277222e-01</quality>
              <gt>1.5955667197704315e-01</gt></_>
            <_><var>28</var>
              <quality>3.9340981841087341e-01</quality>
              <le>3.8064551353454590e-01</le></_>
            <_><var>96</var>
              <quality>3.9282956719398499e-01</quality>
              <le>4.3322789669036865e-01</le></_>
            <_><var>39</var>
              <quality>3.9243400096893311e-01</quality>
              <le>6.8789976835250854e-01</le></_>
            <_><var>97</var>
              <quality>3.9227053523063660e-01</quality>
              <le>2.5186455249786377e-01</le></_>
            <_><var>50</var>
              <quality>3.9175188541412354e-01</quality>
              <gt>3.1738728284835815e-01</gt></_>
            <_><var>8</var>
              <quality>3.8988777995109558e-01</quality>
              <le>9.6796792745590210e-01</le></_>
            <_><var>52</var>
              <quality>3.8945946097373962e-01</quality>
              <le>8.5385584831237793e-01</le></_>
            <_><var>33</var>
              <quality>3.8408106565475464e-01</quality>
              <le>8.3059036731719971e-01</le></_>
            <_><var>14</var>
              <quality>3.8317233324050903e-01</quality>
              <le>5.3732985258102417e-01</le></_>
            <_><var>32</var>
              <quality>3.8281691074371338e-01</quality>
              <le>3.8298586010932922e-01</le></_>
            <_><var>19</var>
              <quality>3.8174855709075928e-01</quality>
              <le>9.8146319389343262e-01</le></_>
            <_><var>77</var>
              <quality>3.7972229719161987e-01</quality>
              <le>7.3231697082519531e-01</le></_>
            <_><var>15</var>
              <quality>3.7929821014404297e-01</quality>
              <le>8.3133935928344727e-01</le></_>
            <_><var>79</var>
              <quality>3.7879759073257446e-01</quality>
              <le>7.3784703016281128e-01</le></_>
            <_><var>17</var>
              <quality>3.7847205996513367e-01</quality>
              <gt>1.6929408907890320e-01</gt></_>
            <_><var>7</var>
              <quality>3.7750077247619629e-01</quality>
              <le>5.0372016429901123e-01</le></_>
            <_><var>16</var>
              <quality>3.7707701325416565e-01</quality>
              <gt>1.5961644053459167e-01</gt></_>
            <_><var>27</var>
              <quality>3.7692749500274658e-01</quality>
              <gt>3.0839008092880249e-01</gt></_>
            <_><var>29</var>
              <quality>3.7609457969665527e-01</quality>
              <le>6.9717341661453247e-01</le></_>
            <_><var>44</var>
              <quality>3.7546327710151672e-01</quality>
              <le>1.1093618869781494e+00</le></_>
            <_><var>103</var>
              <quality>3.7531691789627075e-01</quality>
              <gt>4.1476118564605713e-01</gt></_>
            <_><var>5</var>
              <quality>3.7517398595809937e-01</quality>
              <le>1.6919228434562683e-01</le></_>
            <_><var>34</var>
              <quality>3.7446853518486023e-01</quality>
              <le>4.0997058153152466e-01</le></_>
            <_><var>1</var>
              <quality>3.7422162294387817e-01</quality>
              <le>9.7927048802375793e-02</le></_>
            <_><var>78</var>
              <quality>3.7340369820594788e-01</quality>
              <le>1.2257156372070312e+00</le></_>
            <_><var>30</var>
              <quality>3.7279674410820007e-01</quality>
              <le>1.0632091015577316e-01</le></_>
            <_><var>99</var>
              <quality>3.7257045507431030e-01</quality>
              <gt>7.3203301429748535e-01</gt></_>
            <_><var>101</var>
              <quality>3.7142565846443176e-01</quality>
              <gt>4.1927099227905273e-01</gt></_>
            <_><var>70</var>
              <quality>3.7124961614608765e-01</quality>
              <gt>4.9392640590667725e-01</gt></_>
            <_><var>9</var>
              <quality>3.7104398012161255e-01</quality>
              <le>4.6784359216690063e-01</le></_>
            <_><var>69</var>
              <quality>3.7101119756698608e-01</quality>
              <le>3.4210163354873657e-01</le></_>
            <_><var>63</var>
              <quality>3.7019613385200500e-01</quality>
              <le>8.6503848433494568e-02</le></_>
            <_><var>72</var>
              <quality>3.7009629607200623e-01</quality>
              <gt>7.6676106452941895e-01</gt></_>
            <_><var>31</var>
              <quality>3.6984679102897644e-01</quality>
              <le>3.1393599510192871e-01</le></_>
            <_><var>100</var>
              <quality>3.6970266699790955e-01</quality>
              <gt>4.5739355683326721e-01</gt></_>
            <_><var>102</var>
              <quality>3.6970266699790955e-01</quality>
              <gt>4.8100474476814270e-01</gt></_>
            <_><var>41</var>
              <quality>3.6951407790184021e-01</quality>
              <le>2.2590440511703491e-01</le></_>
            <_><var>21</var>
              <quality>3.6950305104255676e-01</quality>
              <le>1.7411097884178162e-01</le></_>
            <_><var>55</var>
              <quality>3.6950305104255676e-01</quality>
              <le>2.0297092199325562e-01</le></_>
            <_><var>85</var>
              <quality>3.6950305104255676e-01</quality>
              <le>3.3192884922027588e-01</le></_>
            <_><var>104</var>
              <quality>3.6950305104255676e-01</quality>
              <le>6.9108344614505768e-03</le></_>
            <_><var>51</var>
              <quality>3.6940878629684448e-01</quality>
              <gt>5.7302260398864746e-01</gt></_>
            <_><var>22</var>
              <quality>3.6936998367309570e-01</quality>
              <le>3.3412390947341919e-01</le></_>
            <_><var>90</var>
              <quality>3.6935332417488098e-01</quality>
              <le>5.4965913295745850e-01</le></_></splits></_>
        <_>
          <depth>1</depth>
          <sample_count>626</sample_count>
          <value>5.8651722146015195e-01</value>
          <norm_class_idx>1</norm_class_idx>
          <Tn>0</Tn>
          <complexity>0</complexity>
          <alpha>0.</alpha>
          <node_risk>0.</node_risk>
          <tree_risk>0.</tree_risk>
          <tree_error>0.</tree_error></_>
        <_>
          <depth>1</depth>
          <sample_count>1514</sample_count>
          <value>-3.0870575297799036e-01</value>
          <norm_class_idx>0</norm_class_idx>
          <Tn>0</Tn>
          <complexity>0</complexity>
          <alpha>0.</alpha>
          <node_risk>0.</node_risk>
          <tree_risk>0.</tree_risk>
          <tree_error>0.</tree_error></_></nodes></_>
    <_>
      <best_tree_idx>-1</best_tree_idx>
      <nodes>
        <_>
          <depth>0</depth>
          <sample_count>1985</sample_count>
          <value>-3.0664424370326203e-02</value>
          <norm_class_idx>0</norm_class_idx>
          <Tn>0</Tn>
          <complexity>0</complexity>
          <alpha>0.</alpha>
          <node_risk>0.</node_risk>
          <tree_risk>0.</tree_risk>
          <tree_error>0.</tree_error>
          <splits>
            <_><var>99</var>
              <quality>5.1100605726242065e-01</quality>
              <le>5.8463108539581299e-01</le></_>
            <_><var>100</var>
              <quality>3.9718937873840332e-01</quality>
              <le>3.0003425478935242e-01</le></_>
            <_><var>102</var>
              <quality>3.8700768351554871e-01</quality>
              <le>3.0410823225975037e-01</le></_>
            <_><var>101</var>
              <quality>3.8211211562156677e-01</quality>
              <le>3.1441193819046021e-01</le></_>
            <_><var>103</var>
              <quality>3.6611217260360718e-01</quality>
              <le>3.1563812494277954e-01</le></_>
            <_><var>65</var>
              <quality>3.4182950854301453e-01</quality>
              <le>1.0604202747344971e+00</le></_>
            <_><var>47</var>
              <quality>3.3767220377922058e-01</quality>
              <le>1.0418365001678467e+00</le></_>
            <_><var>11</var>
              <quality>3.2808589935302734e-01</quality>
              <le>9.3472510576248169e-01</le></_>
            <_><var>91</var>
              <quality>3.2571437954902649e-01</quality>
              <le>1.2489259243011475e+00</le></_>
            <_><var>23</var>
              <quality>3.2429119944572449e-01</quality>
              <le>9.8890388011932373e-01</le></_>
            <_><var>81</var>
              <quality>3.1887441873550415e-01</quality>
              <le>1.2405794858932495e+00</le></_>
            <_><var>66</var>
              <quality>3.1884661316871643e-01</quality>
              <gt>8.8342177867889404e-01</gt></_>
            <_><var>46</var>
              <quality>3.1767776608467102e-01</quality>
              <gt>8.6873018741607666e-01</gt></_>
            <_><var>24</var>
              <quality>3.1703481078147888e-01</quality>
              <gt>8.8950932025909424e-01</gt></_>
            <_><var>97</var>
              <quality>3.1703388690948486e-01</quality>
              <le>1.5459838509559631e-01</le></_>
            <_><var>92</var>
              <quality>3.1686922907829285e-01</quality>
              <gt>1.0657351016998291e+00</gt></_>
            <_><var>26</var>
              <quality>3.1654757261276245e-01</quality>
              <gt>1.1078022718429565e+00</gt></_>
            <_><var>59</var>
              <quality>3.1584563851356506e-01</quality>
              <gt>1.0547673702239990e+00</gt></_>
            <_><var>104</var>
              <quality>3.1544813513755798e-01</quality>
              <gt>2.5031036138534546e-01</gt></_>
            <_><var>1</var>
              <quality>3.1543120741844177e-01</quality>
              <le>1.0789276659488678e-01</le></_>
            <_><var>36</var>
              <quality>3.1486228108406067e-01</quality>
              <le>8.3136570453643799e-01</le></_>
            <_><var>68</var>
              <quality>3.1464511156082153e-01</quality>
              <gt>1.1554981470108032e+00</gt></_>
            <_><var>57</var>
              <quality>3.1436339020729065e-01</quality>
              <gt>8.5676199197769165e-01</gt></_>
            <_><var>89</var>
              <quality>3.1403219699859619e-01</quality>
              <gt>1.2393414974212646e+00</gt></_>
            <_><var>80</var>
              <quality>3.1401020288467407e-01</quality>
              <gt>1.0732338428497314e+00</gt></_>
            <_><var>96</var>
              <quality>3.1381747126579285e-01</quality>
              <le>3.2063782215118408e-01</le></_>
            <_><var>38</var>
              <quality>3.1333571672439575e-01</quality>
              <gt>1.0427727699279785e+00</gt></_>
            <_><var>13</var>
              <quality>3.1320691108703613e-01</quality>
              <gt>1.0913755893707275e+00</gt></_>
            <_><var>10</var>
              <quality>3.1309419870376587e-01</quality>
              <gt>8.5582119226455688e-01</gt></_>
            <_><var>62</var>
              <quality>3.1290525197982788e-01</quality>
              <gt>4.2642432451248169e-01</gt></_>
            <_><var>35</var>
              <quality>3.1280761957168579e-01</quality>
              <gt>8.4335100650787354e-01</gt></_>
            <_><var>95</var>
              <quality>3.1179344654083252e-01</quality>
              <le>4.0120899677276611e-01</le></_>
            <_><var>87</var>
              <quality>3.1166449189186096e-01</quality>
              <gt>1.0671093463897705e+00</gt></_>
            <_><var>76</var>
              <quality>3.1129965186119080e-01</quality>
              <gt>1.2372021675109863e+00</gt></_>
            <_><var>85</var>
              <quality>3.1090861558914185e-01</quality>
              <gt>7.0861327648162842e-01</gt></_>
            <_><var>49</var>
              <quality>3.1056162714958191e-01</quality>
              <gt>1.1481624841690063e+00</gt></_>
            <_><var>43</var>
              <quality>3.1043270230293274e-01</quality>
              <le>6.5003585815429688e-01</le></_>
            <_><var>72</var>
              <quality>3.1018683314323425e-01</quality>
              <gt>7.3798668384552002e-01</gt></_>
            <_><var>39</var>
              <quality>3.1015828251838684e-01</quality>
              <le>6.6896551847457886e-01</le></_>
            <_><var>50</var>
              <quality>3.0998265743255615e-01</quality>
              <gt>3.3141899108886719e-01</gt></_>
            <_><var>70</var>
              <quality>3.0970788002014160e-01</quality>
              <le>2.3567973077297211e-01</le></_>
            <_><var>75</var>
              <quality>3.0951258540153503e-01</quality>
              <le>8.0189394950866699e-01</le></_>
            <_><var>3</var>
              <quality>3.0946353077888489e-01</quality>
              <le>4.9753803014755249e-01</le></_>
            <_><var>98</var>
              <quality>3.0941060185432434e-01</quality>
              <gt>6.4519083499908447e-01</gt></_>
            <_><var>28</var>
              <quality>3.0932870507240295e-01</quality>
              <le>3.2931470870971680e-01</le></_>
            <_><var>18</var>
              <quality>3.0924043059349060e-01</quality>
              <gt>6.4632868766784668e-01</gt></_>
            <_><var>84</var>
              <quality>3.0898070335388184e-01</quality>
              <le>3.5335665941238403e-01</le></_>
            <_><var>93</var>
              <quality>3.0896165966987610e-01</quality>
              <le>9.4467121362686157e-01</le></_>
            <_><var>56</var>
              <quality>3.0893006920814514e-01</quality>
              <le>7.8901308774948120e-01</le></_>
            <_><var>32</var>
              <quality>3.0878582596778870e-01</quality>
              <gt>5.1982307434082031e-01</gt></_>
            <_><var>7</var>
              <quality>3.0874302983283997e-01</quality>
              <gt>6.2657463550567627e-01</gt></_>
            <_><var>54</var>
              <quality>3.0858737230300903e-01</quality>
              <le>4.1006323695182800e-01</le></_>
            <_><var>29</var>
              <quality>3.0804622173309326e-01</quality>
              <gt>7.7187150716781616e-01</gt></_>
            <_><var>20</var>
              <quality>3.0783379077911377e-01</quality>
              <gt>3.0469745397567749e-01</gt></_>
            <_><var>88</var>
              <quality>3.0776152014732361e-01</quality>
              <le>7.1712791919708252e-01</le></_>
            <_><var>60</var>
              <quality>3.0759358406066895e-01</quality>
              <gt>7.8624081611633301e-01</gt></_>
            <_><var>0</var>
              <quality>3.0758658051490784e-01</quality>
              <le>6.4455950260162354e-01</le></_>
            <_><var>67</var>
              <quality>3.0755186080932617e-01</quality>
              <le>8.2167851924896240e-01</le></_>
            <_><var>8</var>
              <quality>3.0743044614791870e-01</quality>
              <le>9.1523694992065430e-01</le></_>
            <_><var>86</var>
              <quality>3.0735722184181213e-01</quality>
              <le>8.8702160120010376e-01</le></_>
            <_><var>14</var>
              <quality>3.0711269378662109e-01</quality>
              <gt>6.6445457935333252e-01</gt></_>
            <_><var>94</var>
              <quality>3.0704119801521301e-01</quality>
              <gt>1.3103953599929810e+00</gt></_>
            <_><var>73</var>
              <quality>3.0697035789489746e-01</quality>
              <gt>1.0669555664062500e+00</gt></_>
            <_><var>74</var>
              <quality>3.0689460039138794e-01</quality>
              <le>8.3371639251708984e-01</le></_>
            <_><var>83</var>
              <quality>3.0682668089866638e-01</quality>
              <le>1.0117170810699463e+00</le></_>
            <_><var>33</var>
              <quality>3.0674016475677490e-01</quality>
              <le>7.8070902824401855e-01</le></_>
            <_><var>27</var>
              <quality>3.0671170353889465e-01</quality>
              <le>2.2997206449508667e-01</le></_>
            <_><var>51</var>
              <quality>3.0663082003593445e-01</quality>
              <gt>5.4995489120483398e-01</gt></_>
            <_><var>15</var>
              <quality>3.0649536848068237e-01</quality>
              <gt>8.7268644571304321e-01</gt></_>
            <_><var>30</var>
              <quality>3.0647450685501099e-01</quality>
              <gt>3.2693624496459961e-01</gt></_>
            <_><var>53</var>
              <quality>3.0580893158912659e-01</quality>
              <gt>2.9257863759994507e-01</gt></_>
            <_><var>6</var>
              <quality>3.0567675828933716e-01</quality>
              <gt>3.8706120848655701e-01</gt></_>
            <_><var>55</var>
              <quality>3.0564469099044800e-01</quality>
              <le>2.6308774948120117e-01</le></_>
            <_><var>90</var>
              <quality>3.0552339553833008e-01</quality>
              <le>6.0784536600112915e-01</le></_>
            <_><var>5</var>
              <quality>3.0545642971992493e-01</quality>
              <le>1.1474994570016861e-01</le></_>
            <_><var>4</var>
              <quality>3.0545642971992493e-01</quality>
              <gt>9.1204845905303955e-01</gt></_>
            <_><var>25</var>
              <quality>3.0533516407012939e-01</quality>
              <le>5.6755745410919189e-01</le></_>
            <_><var>2</var>
              <quality>3.0533033609390259e-01</quality>
              <le>8.9039631187915802e-02</le></_>
            <_><var>22</var>
              <quality>3.0528083443641663e-01</quality>
              <le>3.2605171203613281e-01</le></_>
            <_><var>16</var>
              <quality>3.0519911646842957e-01</quality>
              <gt>2.3173207044601440e-01</gt></_>
            <_><var>58</var>
              <quality>3.0503827333450317e-01</quality>
              <le>4.8858067393302917e-01</le></_>
            <_><var>42</var>
              <quality>3.0484724044799805e-01</quality>
              <gt>2.8725799918174744e-01</gt></_>
            <_><var>82</var>
              <quality>3.0482146143913269e-01</quality>
              <gt>1.3586291074752808e+00</gt></_>
            <_><var>61</var>
              <quality>3.0470016598701477e-01</quality>
              <gt>1.2280774116516113e+00</gt></_>
            <_><var>69</var>
              <quality>3.0462628602981567e-01</quality>
              <le>3.3003765344619751e-01</le></_>
            <_><var>64</var>
              <quality>3.0453211069107056e-01</quality>
              <le>4.3466621637344360e-01</le></_>
            <_><var>21</var>
              <quality>3.0447858572006226e-01</quality>
              <gt>4.1304808855056763e-01</gt></_>
            <_><var>71</var>
              <quality>3.0446514487266541e-01</quality>
              <gt>1.0349864959716797e+00</gt></_>
            <_><var>41</var>
              <quality>3.0435216426849365e-01</quality>
              <le>2.6528069376945496e-01</le></_>
            <_><var>12</var>
              <quality>3.0422255396842957e-01</quality>
              <gt>1.1463233232498169e+00</gt></_>
            <_><var>17</var>
              <quality>3.0422255396842957e-01</quality>
              <gt>2.5164979696273804e-01</gt></_>
            <_><var>45</var>
              <quality>3.0422255396842957e-01</quality>
              <gt>1.0770568847656250e+00</gt></_>
            <_><var>48</var>
              <quality>3.0422255396842957e-01</quality>
              <gt>1.2586580514907837e+00</gt></_>
            <_><var>79</var>
              <quality>3.0422255396842957e-01</quality>
              <gt>1.3231890201568604e+00</gt></_>
            <_><var>63</var>
              <quality>3.0413669347763062e-01</quality>
              <le>9.1014608740806580e-02</le></_>
            <_><var>77</var>
              <quality>3.0410125851631165e-01</quality>
              <gt>1.0309801101684570e+00</gt></_>
            <_><var>37</var>
              <quality>3.0410125851631165e-01</quality>
              <gt>1.0636372566223145e+00</gt></_>
            <_><var>31</var>
              <quality>3.0410125851631165e-01</quality>
              <gt>6.0912370681762695e-01</gt></_>
            <_><var>9</var>
              <quality>3.0410125851631165e-01</quality>
              <gt>8.8154184818267822e-01</gt></_></splits></_>
        <_>
          <depth>1</depth>
          <sample_count>964</sample_count>
          <value>-3.1853002719034373e-01</value>
          <norm_class_idx>0</norm_class_idx>
          <Tn>0</Tn>
          <complexity>0</complexity>
          <alpha>0.</alpha>
          <node_risk>0.</node_risk>
          <tree_risk>0.</tree_risk>
          <tree_error>0.</tree_error></_>
        <_>
          <depth>1</depth>
          <sample_count>1021</sample_count>
          <value>1.5950525087733181e-01</value>
          <norm_class_idx>1</norm_class_idx>
          <Tn>0</Tn>
          <complexity>0</complexity>
          <alpha>0.</alpha>
          <node_risk>0.</node_risk>
          <tree_risk>0.</tree_risk>
          <tree_error>0.</tree_error></_></nodes></_>
    <_>
      <best_tree_idx>-1</best_tree_idx>
      <nodes>
        <_>
          <depth>0</depth>
          <sample_count>1985</sample_count>
          <value>-5.7002742370055083e-15</value>
          <norm_class_idx>0</norm_class_idx>
          <Tn>0</Tn>
          <complexity>0</complexity>
          <alpha>0.</alpha>
          <node_risk>0.</node_risk>
          <tree_risk>0.</tree_risk>
          <tree_error>0.</tree_error>
          <splits>
            <_><var>72</var>
              <quality>5.1335793733596802e-01</quality>
              <le>5.0093287229537964e-01</le></_>
            <_><var>34</var>
              <quality>4.7402176260948181e-01</quality>
              <le>3.5590186715126038e-01</le></_>
            <_><var>85</var>
              <quality>4.7365656495094299e-01</quality>
              <le>4.8165541887283325e-01</le></_>
            <_><var>9</var>
              <quality>4.6797147393226624e-01</quality>
              <le>4.5977920293807983e-01</le></_>
            <_><var>75</var>
              <quality>4.5976316928863525e-01</quality>
              <le>7.6118052005767822e-01</le></_>
            <_><var>55</var>
              <quality>4.5850235223770142e-01</quality>
              <le>3.5138735175132751e-01</le></_>
            <_><var>88</var>
              <quality>4.5645919442176819e-01</quality>
              <le>7.3815226554870605e-01</le></_>
            <_><var>79</var>
              <quality>4.5556625723838806e-01</quality>
              <le>7.1493846178054810e-01</le></_>
            <_><var>12</var>
              <quality>4.5390415191650391e-01</quality>
              <le>6.7005729675292969e-01</le></_>
            <_><var>48</var>
              <quality>4.5335370302200317e-01</quality>
              <le>7.2411704063415527e-01</le></_>
            <_><var>82</var>
              <quality>4.5279103517532349e-01</quality>
              <le>9.2252510786056519e-01</le></_>
            <_><var>96</var>
              <quality>4.5226296782493591e-01</quality>
              <gt>5.8359086513519287e-01</gt></_>
            <_><var>37</var>
              <quality>4.5223799347877502e-01</quality>
              <le>5.8339738845825195e-01</le></_>
            <_><var>45</var>
              <quality>4.5209908485412598e-01</quality>
              <le>5.3770971298217773e-01</le></_>
            <_><var>22</var>
              <quality>4.5178067684173584e-01</quality>
              <le>4.3606328964233398e-01</le></_>
            <_><var>58</var>
              <quality>4.5050269365310669e-01</quality>
              <le>5.8786588907241821e-01</le></_>
            <_><var>67</var>
              <quality>4.5025733113288879e-01</quality>
              <le>7.3261404037475586e-01</le></_>
            <_><var>93</var>
              <quality>4.4991040229797363e-01</quality>
              <le>9.0972262620925903e-01</le></_>
            <_><var>25</var>
              <quality>4.4947391748428345e-01</quality>
              <le>6.5628790855407715e-01</le></_>
            <_><var>68</var>
              <quality>4.4889512658119202e-01</quality>
              <le>8.5277104377746582e-01</le></_>
            <_><var>94</var>
              <quality>4.4887018203735352e-01</quality>
              <le>9.7192120552062988e-01</le></_>
            <_><var>26</var>
              <quality>4.4876357913017273e-01</quality>
              <le>7.6207685470581055e-01</le></_>
            <_><var>91</var>
              <quality>4.4869968295097351e-01</quality>
              <le>1.1022284030914307e+00</le></_>
            <_><var>83</var>
              <quality>4.4860297441482544e-01</quality>
              <le>1.0013663768768311e+00</le></_>
            <_><var>76</var>
              <quality>4.4852659106254578e-01</quality>
              <le>8.1612741947174072e-01</le></_>
            <_><var>65</var>
              <quality>4.4850721955299377e-01</quality>
              <le>9.7390466928482056e-01</le></_>
            <_><var>49</var>
              <quality>4.4840395450592041e-01</quality>
              <le>8.3787697553634644e-01</le></_>
            <_><var>92</var>
              <quality>4.4824859499931335e-01</quality>
              <le>7.3057520389556885e-01</le></_>
            <_><var>70</var>
              <quality>4.4806304574012756e-01</quality>
              <le>1.6218411922454834e-01</le></_>
            <_><var>89</var>
              <quality>4.4794544577598572e-01</quality>
              <le>8.1278967857360840e-01</le></_>
            <_><var>66</var>
              <quality>4.4791159033775330e-01</quality>
              <le>5.7773852348327637e-01</le></_>
            <_><var>23</var>
              <quality>4.4790643453598022e-01</quality>
              <le>8.4561073780059814e-01</le></_>
            <_><var>13</var>
              <quality>4.4783654808998108e-01</quality>
              <le>7.1792972087860107e-01</le></_>
            <_><var>59</var>
              <quality>4.4781392812728882e-01</quality>
              <le>6.4908814430236816e-01</le></_>
            <_><var>80</var>
              <quality>4.4770503044128418e-01</quality>
              <le>7.4403870105743408e-01</le></_>
            <_><var>46</var>
              <quality>4.4768860936164856e-01</quality>
              <le>5.7924318313598633e-01</le></_>
            <_><var>11</var>
              <quality>4.4760879874229431e-01</quality>
              <le>8.5712110996246338e-01</le></_>
            <_><var>38</var>
              <quality>4.4759094715118408e-01</quality>
              <le>6.2811076641082764e-01</le></_>
            <_><var>47</var>
              <quality>4.4749987125396729e-01</quality>
              <le>9.3813967704772949e-01</le></_>
            <_><var>63</var>
              <quality>4.4748204946517944e-01</quality>
              <le>8.2008898258209229e-02</le></_>
            <_><var>81</var>
              <quality>4.4746300578117371e-01</quality>
              <le>1.1394441127777100e+00</le></_>
            <_><var>24</var>
              <quality>4.4746050238609314e-01</quality>
              <le>5.9648686647415161e-01</le></_>
            <_><var>98</var>
              <quality>4.4738301634788513e-01</quality>
              <gt>8.1461286544799805e-01</gt></_>
            <_><var>14</var>
              <quality>4.4738301634788513e-01</quality>
              <gt>6.8790197372436523e-01</gt></_>
            <_><var>36</var>
              <quality>4.4736799597740173e-01</quality>
              <le>7.1288716793060303e-01</le></_>
            <_><var>16</var>
              <quality>4.4735774397850037e-01</quality>
              <le>7.2766132652759552e-02</le></_>
            <_><var>73</var>
              <quality>4.4732385873794556e-01</quality>
              <le>7.4270629882812500e-01</le></_>
            <_><var>0</var>
              <quality>4.4729197025299072e-01</quality>
              <gt>8.1579232215881348e-01</gt></_>
            <_><var>51</var>
              <quality>4.4729197025299072e-01</quality>
              <gt>6.1053955554962158e-01</gt></_>
            <_><var>104</var>
              <quality>4.4729197025299072e-01</quality>
              <gt>4.9165737628936768e-01</gt></_>
            <_><var>103</var>
              <quality>4.4726586341857910e-01</quality>
              <gt>4.7689574956893921e-01</gt></_>
            <_><var>74</var>
              <quality>4.4725394248962402e-01</quality>
              <le>7.9255974292755127e-01</le></_>
            <_><var>57</var>
              <quality>4.4723755121231079e-01</quality>
              <le>5.7019007205963135e-01</le></_>
            <_><var>42</var>
              <quality>4.4723612070083618e-01</quality>
              <le>7.8948438167572021e-02</le></_>
            <_><var>18</var>
              <quality>4.4720086455345154e-01</quality>
              <gt>7.4358439445495605e-01</gt></_>
            <_><var>17</var>
              <quality>4.4720086455345154e-01</quality>
              <gt>2.4448350071907043e-01</gt></_>
            <_><var>15</var>
              <quality>4.4720086455345154e-01</quality>
              <le>7.5843858718872070e-01</le></_>
            <_><var>90</var>
              <quality>4.4716012477874756e-01</quality>
              <le>7.0942473411560059e-01</le></_>
            <_><var>78</var>
              <quality>4.4714504480361938e-01</quality>
              <le>1.0388391017913818e+00</le></_></splits></_>
        <_>
          <depth>1</depth>
          <sample_count>334</sample_count>
          <value>-7.0186661732535238e-01</value>
          <norm_class_idx>0</norm_class_idx>
          <Tn>0</Tn>
          <complexity>0</complexity>
          <alpha>0.</alpha>
          <node_risk>0.</node_risk>
          <tree_risk>0.</tree_risk>
          <tree_error>0.</tree_error></_>
        <_>
          <depth>1</depth>
          <sample_count>1651</sample_count>
          <value>8.9911070728287273e-02</value>
          <norm_class_idx>1</norm_class_idx>
          <Tn>0</Tn>
          <complexity>0</complexity>
          <alpha>0.</alpha>
          <node_risk>0.</node_risk>
          <tree_risk>0.</tree_risk>
          <tree_error>0.</tree_error></_></nodes></_>
    <_>
      <best_tree_idx>-1</best_tree_idx>
      <nodes>
        <_>
          <depth>0</depth>
          <sample_count>1797</sample_count>
          <value>3.4084191570454149e-02</value>
          <norm_class_idx>1</norm_class_idx>
          <Tn>0</Tn>
          <complexity>0</complexity>
          <alpha>0.</alpha>
          <node_risk>0.</node_risk>
          <tree_risk>0.</tree_risk>
          <tree_error>0.</tree_error>
          <splits>
            <_><var>56</var>
              <quality>5.0468903779983521e-01</quality>
              <le>1.0082631111145020e+00</le></_>
            <_><var>23</var>
              <quality>4.9314203858375549e-01</quality>
              <le>1.0978167057037354e+00</le></_>
            <_><var>65</var>
              <quality>4.8450785875320435e-01</quality>
              <le>1.1760573387145996e+00</le></_>
            <_><var>35</var>
              <quality>4.8151049017906189e-01</quality>
              <le>8.6422854661941528e-01</le></_>
            <_><var>57</var>
              <quality>4.8059111833572388e-01</quality>
              <le>8.8788056373596191e-01</le></_>
            <_><var>36</var>
              <quality>4.8031252622604370e-01</quality>
              <le>1.0206372737884521e+00</le></_>
            <_><var>10</var>
              <quality>4.7989055514335632e-01</quality>
              <le>8.8346737623214722e-01</le></_>
            <_><var>24</var>
              <quality>4.7875896096229553e-01</quality>
              <le>9.0335398912429810e-01</le></_>
            <_><var>86</var>
              <quality>4.7816836833953857e-01</quality>
              <le>1.1561274528503418e+00</le></_>
            <_><var>46</var>
              <quality>4.7695860266685486e-01</quality>
              <le>8.9502632617950439e-01</le></_>
            <_><var>66</var>
              <quality>4.7689828276634216e-01</quality>
              <le>9.0792930126190186e-01</le></_>
            <_><var>73</var>
              <quality>4.7644105553627014e-01</quality>
              <le>1.0679650306701660e+00</le></_>
            <_><var>11</var>
              <quality>4.7566932439804077e-01</quality>
              <le>1.1115717887878418e+00</le></_>
            <_><var>87</var>
              <quality>4.7551324963569641e-01</quality>
              <le>1.0798583030700684e+00</le></_>
            <_><var>74</var>
              <quality>4.7364619374275208e-01</quality>
              <le>1.1569414138793945e+00</le></_>
            <_><var>47</var>
              <quality>4.7317540645599365e-01</quality>
              <le>1.1883730888366699e+00</le></_>
            <_><var>94</var>
              <quality>4.7257807850837708e-01</quality>
              <le>1.4117469787597656e+00</le></_>
            <_><var>80</var>
              <quality>4.7243204712867737e-01</quality>
              <le>1.0918951034545898e+00</le></_>
            <_><var>92</var>
              <quality>4.7211298346519470e-01</quality>
              <le>1.1394290924072266e+00</le></_>
            <_><var>26</var>
              <quality>4.7189420461654663e-01</quality>
              <le>1.1750741004943848e+00</le></_>
            <_><var>59</var>
              <quality>4.7165018320083618e-01</quality>
              <le>1.1065194606781006e+00</le></_>
            <_><var>25</var>
              <quality>4.7136640548706055e-01</quality>
              <le>9.8129320144653320e-01</le></_>
            <_><var>68</var>
              <quality>4.7128346562385559e-01</quality>
              <le>1.1827588081359863e+00</le></_>
            <_><var>38</var>
              <quality>4.7112450003623962e-01</quality>
              <le>1.1153135299682617e+00</le></_>
            <_><var>13</var>
              <quality>4.7108501195907593e-01</quality>
              <le>1.1665661334991455e+00</le></_>
            <_><var>49</var>
              <quality>4.7095632553100586e-01</quality>
              <le>1.1892288923263550e+00</le></_>
            <_><var>91</var>
              <quality>4.7073516249656677e-01</quality>
              <le>1.4418935775756836e+00</le></_>
            <_><var>81</var>
              <quality>4.7052285075187683e-01</quality>
              <le>1.4493463039398193e+00</le></_>
            <_><var>83</var>
              <quality>4.7048139572143555e-01</quality>
              <le>1.4055397510528564e+00</le></_>
            <_><var>58</var>
              <quality>4.7047176957130432e-01</quality>
              <le>9.3311196565628052e-01</le></_>
            <_><var>89</var>
              <quality>4.7042417526245117e-01</quality>
              <le>1.2671868801116943e+00</le></_>
            <_><var>88</var>
              <quality>4.6959051489830017e-01</quality>
              <le>1.0441279411315918e+00</le></_>
            <_><var>67</var>
              <quality>4.6939244866371155e-01</quality>
              <le>1.0397977828979492e+00</le></_>
            <_><var>97</var>
              <quality>4.6886602044105530e-01</quality>
              <le>4.5110523700714111e-01</le></_>
            <_><var>37</var>
              <quality>4.6867933869361877e-01</quality>
              <le>9.2281925678253174e-01</le></_>
            <_><var>76</var>
              <quality>4.6844014525413513e-01</quality>
              <le>1.3274765014648438e+00</le></_>
            <_><var>52</var>
              <quality>4.6822440624237061e-01</quality>
              <le>9.5597285032272339e-01</le></_>
            <_><var>75</var>
              <quality>4.6811953186988831e-01</quality>
              <le>1.0683021545410156e+00</le></_>
            <_><var>12</var>
              <quality>4.6795266866683960e-01</quality>
              <le>1.0436739921569824e+00</le></_>
            <_><var>93</var>
              <quality>4.6776384115219116e-01</quality>
              <le>1.3099557161331177e+00</le></_>
            <_><var>48</var>
              <quality>4.6745634078979492e-01</quality>
              <le>1.1064174175262451e+00</le></_>
            <_><var>78</var>
              <quality>4.6720427274703979e-01</quality>
              <le>1.4143015146255493e+00</le></_>
            <_><var>44</var>
              <quality>4.6710169315338135e-01</quality>
              <le>1.2369929552078247e+00</le></_>
            <_><var>33</var>
              <quality>4.6683365106582642e-01</quality>
              <le>9.8177862167358398e-01</le></_>
            <_><var>19</var>
              <quality>4.6683365106582642e-01</quality>
              <le>1.0866184234619141e+00</le></_>
            <_><var>34</var>
              <quality>4.6660119295120239e-01</quality>
              <le>6.7765831947326660e-01</le></_>
            <_><var>22</var>
              <quality>4.6654862165451050e-01</quality>
              <le>7.1539294719696045e-01</le></_>
            <_><var>104</var>
              <quality>4.6628481149673462e-01</quality>
              <le>4.4803434610366821e-01</le></_>
            <_><var>82</var>
              <quality>4.6623077988624573e-01</quality>
              <le>1.3725250959396362e+00</le></_>
            <_><var>98</var>
              <quality>4.6617814898490906e-01</quality>
              <le>7.3210954666137695e-01</le></_>
            <_><var>55</var>
              <quality>4.6610483527183533e-01</quality>
              <le>6.7125856876373291e-01</le></_>
            <_><var>39</var>
              <quality>4.6605336666107178e-01</quality>
              <le>7.9763805866241455e-01</le></_>
            <_><var>50</var>
              <quality>4.6605336666107178e-01</quality>
              <gt>2.0322304964065552e-01</gt></_>
            <_><var>8</var>
              <quality>4.6599051356315613e-01</quality>
              <le>1.1474328041076660e+00</le></_>
            <_><var>95</var>
              <quality>4.6597453951835632e-01</quality>
              <le>7.5982940196990967e-01</le></_>
            <_><var>77</var>
              <quality>4.6596276760101318e-01</quality>
              <le>9.4283485412597656e-01</le></_>
            <_><var>71</var>
              <quality>4.6586474776268005e-01</quality>
              <le>9.6887928247451782e-01</le></_>
            <_><var>45</var>
              <quality>4.6572244167327881e-01</quality>
              <le>9.0125489234924316e-01</le></_>
            <_><var>79</var>
              <quality>4.6568274497985840e-01</quality>
              <le>1.1001224517822266e+00</le></_>
            <_><var>62</var>
              <quality>4.6563187241554260e-01</quality>
              <le>5.5646973848342896e-01</le></_>
            <_><var>31</var>
              <quality>4.6563187241554260e-01</quality>
              <le>5.8823657035827637e-01</le></_>
            <_><var>85</var>
              <quality>4.6562048792839050e-01</quality>
              <le>8.3727121353149414e-01</le></_>
            <_><var>20</var>
              <quality>4.6556901931762695e-01</quality>
              <le>4.5171749591827393e-01</le></_>
            <_><var>9</var>
              <quality>4.6555697917938232e-01</quality>
              <le>8.0689442157745361e-01</le></_>
            <_><var>6</var>
              <quality>4.6552932262420654e-01</quality>
              <le>4.1290235519409180e-01</le></_>
            <_><var>64</var>
              <quality>4.6551975607872009e-01</quality>
              <le>8.6043959856033325e-01</le></_>
            <_><var>21</var>
              <quality>4.6546643972396851e-01</quality>
              <le>4.5949620008468628e-01</le></_>
            <_><var>90</var>
              <quality>4.6541714668273926e-01</quality>
              <le>1.0975713729858398e+00</le></_>
            <_><var>61</var>
              <quality>4.6536386013031006e-01</quality>
              <le>1.2578761577606201e+00</le></_>
            <_><var>63</var>
              <quality>4.6536386013031006e-01</quality>
              <le>3.5288006067276001e-01</le></_>
            <_><var>96</var>
              <quality>4.6535006165504456e-01</quality>
              <le>6.8951559066772461e-01</le></_>
            <_><var>72</var>
              <quality>4.6533614397048950e-01</quality>
              <le>8.7072044610977173e-01</le></_>
            <_><var>60</var>
              <quality>4.6531277894973755e-01</quality>
              <le>8.2737004756927490e-01</le></_>
            <_><var>101</var>
              <quality>4.6519842743873596e-01</quality>
              <le>5.0173544883728027e-01</le></_>
            <_><var>70</var>
              <quality>4.6519842743873596e-01</quality>
              <gt>1.2372206151485443e-01</gt></_>
            <_><var>54</var>
              <quality>4.6519842743873596e-01</quality>
              <le>5.6719207763671875e-01</le></_>
            <_><var>43</var>
              <quality>4.6519842743873596e-01</quality>
              <gt>4.8695433139801025e-01</gt></_>
            <_><var>32</var>
              <quality>4.6519842743873596e-01</quality>
              <gt>2.1683327853679657e-01</gt></_>
            <_><var>7</var>
              <quality>4.6519842743873596e-01</quality>
              <gt>2.9901471734046936e-01</gt></_>
            <_><var>102</var>
              <quality>4.6515896916389465e-01</quality>
              <le>4.6424251794815063e-01</le></_>
            <_><var>84</var>
              <quality>4.6515870094299316e-01</quality>
              <le>6.6512084007263184e-01</le></_>
            <_><var>41</var>
              <quality>4.6508628129959106e-01</quality>
              <gt>2.3358753323554993e-01</gt></_>
            <_><var>69</var>
              <quality>4.6494239568710327e-01</quality>
              <gt>3.1429046392440796e-01</gt></_>
            <_><var>28</var>
              <quality>4.6491533517837524e-01</quality>
              <le>5.6078320741653442e-01</le></_>
            <_><var>4</var>
              <quality>4.6484476327896118e-01</quality>
              <gt>7.9051041603088379e-01</gt></_>
            <_><var>30</var>
              <quality>4.6483981609344482e-01</quality>
              <le>3.8437709212303162e-01</le></_>
            <_><var>53</var>
              <quality>4.6483981609344482e-01</quality>
              <le>3.7849846482276917e-01</le></_>
            <_><var>42</var>
              <quality>4.6480032801628113e-01</quality>
              <le>3.3780056238174438e-01</le></_>
            <_><var>100</var>
              <quality>4.6474909782409668e-01</quality>
              <le>4.4272202253341675e-01</le></_>
            <_><var>16</var>
              <quality>4.6473723649978638e-01</quality>
              <gt>7.0836044847965240e-02</gt></_>
            <_><var>5</var>
              <quality>4.6473723649978638e-01</quality>
              <le>5.1607710123062134e-01</le></_>
            <_><var>2</var>
              <quality>4.6473723649978638e-01</quality>
              <le>2.2586056590080261e-01</le></_>
            <_><var>1</var>
              <quality>4.6467435359954834e-01</quality>
              <gt>6.3386090099811554e-02</gt></_>
            <_><var>18</var>
              <quality>4.6467435359954834e-01</quality>
              <le>7.4815666675567627e-01</le></_>
            <_><var>3</var>
              <quality>4.6465247869491577e-01</quality>
              <le>6.8273907899856567e-01</le></_>
            <_><var>99</var>
              <quality>4.6460381150245667e-01</quality>
              <le>8.0861210823059082e-01</le></_></splits></_>
        <_>
          <depth>1</depth>
          <sample_count>1599</sample_count>
          <value>1.0343844695136215e-01</value>
          <norm_class_idx>1</norm_class_idx>
          <Tn>0</Tn>
          <complexity>0</complexity>
          <alpha>0.</alpha>
          <node_risk>0.</node_risk>
          <tree_risk>0.</tree_risk>
          <tree_error>0.</tree_error></_>
        <_>
          <depth>1</depth>
          <sample_count>198</sample_count>
          <value>-1.0080985843962376e+00</value>
          <norm_class_idx>0</norm_class_idx>
          <Tn>0</Tn>
          <complexity>0</complexity>
          <alpha>0.</alpha>
          <node_risk>0.</node_risk>
          <tree_risk>0.</tree_risk>
          <tree_error>0.</tree_error></_></nodes></_>
    <_>
      <best_tree_idx>-1</best_tree_idx>
      <nodes>
        <_>
          <depth>0</depth>
          <sample_count>1721</sample_count>
          <value>8.3568477321984606e-04</value>
          <norm_class_idx>1</norm_class_idx>
          <Tn>0</Tn>
          <complexity>0</complexity>
          <alpha>0.</alpha>
          <node_risk>0.</node_risk>
          <tree_risk>0.</tree_risk>
          <tree_error>0.</tree_error>
          <splits>
            <_><var>101</var>
              <quality>4.8788812756538391e-01</quality>
              <le>3.0659121274948120e-01</le></_>
            <_><var>100</var>
              <quality>4.2155021429061890e-01</quality>
              <le>2.8280371427536011e-01</le></_>
            <_><var>99</var>
              <quality>3.9313432574272156e-01</quality>
              <le>5.5078536272048950e-01</le></_>
            <_><var>43</var>
              <quality>3.8766407966613770e-01</quality>
              <le>6.3102191686630249e-01</le></_>
            <_><var>7</var>
              <quality>3.8338938355445862e-01</quality>
              <le>4.7446852922439575e-01</le></_>
            <_><var>39</var>
              <quality>3.7931287288665771e-01</quality>
              <le>6.7214435338973999e-01</le></_>
            <_><var>77</var>
              <quality>3.7928506731987000e-01</quality>
              <le>6.9437062740325928e-01</le></_>
            <_><var>50</var>
              <quality>3.7880426645278931e-01</quality>
              <gt>3.2805955410003662e-01</gt></_>
            <_><var>32</var>
              <quality>3.7814721465110779e-01</quality>
              <le>3.4109768271446228e-01</le></_>
            <_><var>62</var>
              <quality>3.7795883417129517e-01</quality>
              <gt>4.3589946627616882e-01</gt></_>
            <_><var>95</var>
              <quality>3.7540864944458008e-01</quality>
              <le>3.5662931203842163e-01</le></_>
            <_><var>103</var>
              <quality>3.7535879015922546e-01</quality>
              <le>2.8000450134277344e-01</le></_>
            <_><var>49</var>
              <quality>3.7534490227699280e-01</quality>
              <le>9.0079635381698608e-01</le></_>
            <_><var>5</var>
              <quality>3.7427130341529846e-01</quality>
              <le>1.5890027582645416e-01</le></_>
            <_><var>3</var>
              <quality>3.7400603294372559e-01</quality>
              <le>4.9776297807693481e-01</le></_>
            <_><var>13</var>
              <quality>3.7339693307876587e-01</quality>
              <le>8.2112801074981689e-01</le></_>
            <_><var>38</var>
              <quality>3.7334144115447998e-01</quality>
              <le>7.6853048801422119e-01</le></_>
            <_><var>104</var>
              <quality>3.7287354469299316e-01</quality>
              <le>1.1262474581599236e-02</le></_>
            <_><var>64</var>
              <quality>3.7264567613601685e-01</quality>
              <gt>7.9593086242675781e-01</gt></_>
            <_><var>52</var>
              <quality>3.7262120842933655e-01</quality>
              <le>7.7420520782470703e-01</le></_>
            <_><var>83</var>
              <quality>3.7229183316230774e-01</quality>
              <le>1.0543171167373657e+00</le></_>
            <_><var>30</var>
              <quality>3.7224155664443970e-01</quality>
              <le>8.3297036588191986e-02</le></_>
            <_><var>41</var>
              <quality>3.7187176942825317e-01</quality>
              <le>2.8352558612823486e-01</le></_>
            <_><var>16</var>
              <quality>3.7183174490928650e-01</quality>
              <gt>1.7935670912265778e-01</gt></_>
            <_><var>59</var>
              <quality>3.7175244092941284e-01</quality>
              <le>7.5065118074417114e-01</le></_>
            <_><var>88</var>
              <quality>3.7141564488410950e-01</quality>
              <gt>1.0278130769729614e+00</gt></_>
            <_><var>84</var>
              <quality>3.7123611569404602e-01</quality>
              <gt>5.8336365222930908e-01</gt></_>
            <_><var>25</var>
              <quality>3.7112659215927124e-01</quality>
              <gt>9.5646685361862183e-01</gt></_>
            <_><var>67</var>
              <quality>3.7099769711494446e-01</quality>
              <gt>1.0137698650360107e+00</gt></_>
            <_><var>90</var>
              <quality>3.7096416950225830e-01</quality>
              <gt>1.0061764717102051e+00</gt></_>
            <_><var>15</var>
              <quality>3.7092047929763794e-01</quality>
              <le>8.0688846111297607e-01</le></_>
            <_><var>17</var>
              <quality>3.7090581655502319e-01</quality>
              <gt>1.9100767374038696e-01</gt></_>
            <_><var>56</var>
              <quality>3.7090229988098145e-01</quality>
              <le>7.8946745395660400e-01</le></_>
            <_><var>28</var>
              <quality>3.7062624096870422e-01</quality>
              <le>3.2973980903625488e-01</le></_>
            <_><var>102</var>
              <quality>3.7059617042541504e-01</quality>
              <le>1.8914863467216492e-01</le></_>
            <_><var>76</var>
              <quality>3.7032353878021240e-01</quality>
              <le>8.4594976902008057e-01</le></_>
            <_><var>89</var>
              <quality>3.7030348181724548e-01</quality>
              <le>8.5484194755554199e-01</le></_>
            <_><var>60</var>
              <quality>3.7009575963020325e-01</quality>
              <gt>7.7587383985519409e-01</gt></_>
            <_><var>58</var>
              <quality>3.7009400129318237e-01</quality>
              <gt>8.7794184684753418e-01</gt></_>
            <_><var>37</var>
              <quality>3.7004497647285461e-01</quality>
              <gt>9.1456645727157593e-01</gt></_>
            <_><var>86</var>
              <quality>3.7000596523284912e-01</quality>
              <le>8.8717520236968994e-01</le></_>
            <_><var>93</var>
              <quality>3.6999407410621643e-01</quality>
              <gt>1.1727516651153564e+00</gt></_>
            <_><var>85</var>
              <quality>3.6997750401496887e-01</quality>
              <gt>8.2219254970550537e-01</gt></_>
            <_><var>98</var>
              <quality>3.6974194645881653e-01</quality>
              <le>3.1036305427551270e-01</le></_>
            <_><var>20</var>
              <quality>3.6972439289093018e-01</quality>
              <gt>3.6495131254196167e-01</gt></_>
            <_><var>8</var>
              <quality>3.6971655488014221e-01</quality>
              <le>9.1785609722137451e-01</le></_>
            <_><var>74</var>
              <quality>3.6963483691215515e-01</quality>
              <gt>1.2486084699630737e+00</gt></_>
            <_><var>92</var>
              <quality>3.6963251233100891e-01</quality>
              <gt>1.1462004184722900e+00</gt></_>
            <_><var>81</var>
              <quality>3.6962473392486572e-01</quality>
              <le>1.1155499219894409e+00</le></_>
            <_><var>45</var>
              <quality>3.6962324380874634e-01</quality>
              <le>5.0790947675704956e-01</le></_>
            <_><var>22</var>
              <quality>3.6961385607719421e-01</quality>
              <gt>7.6202726364135742e-01</gt></_>
            <_><var>70</var>
              <quality>3.6952805519104004e-01</quality>
              <gt>5.0428622961044312e-01</gt></_>
            <_><var>46</var>
              <quality>3.6952099204063416e-01</quality>
              <gt>9.6999698877334595e-01</gt></_>
            <_><var>0</var>
              <quality>3.6950647830963135e-01</quality>
              <le>6.3024199008941650e-01</le></_>
            <_><var>33</var>
              <quality>3.6938667297363281e-01</quality>
              <le>7.2896587848663330e-01</le></_>
            <_><var>54</var>
              <quality>3.6934328079223633e-01</quality>
              <gt>5.4939258098602295e-01</gt></_>
            <_><var>66</var>
              <quality>3.6933413147926331e-01</quality>
              <gt>9.2187500000000000e-01</gt></_>
            <_><var>72</var>
              <quality>3.6930167675018311e-01</quality>
              <gt>8.5042500495910645e-01</gt></_>
            <_><var>73</var>
              <quality>3.6930167675018311e-01</quality>
              <gt>1.2414574623107910e+00</gt></_>
            <_><var>75</var>
              <quality>3.6930167675018311e-01</quality>
              <gt>1.2567372322082520e+00</gt></_>
            <_><var>87</var>
              <quality>3.6930167675018311e-01</quality>
              <gt>1.2138718366622925e+00</gt></_>
            <_><var>11</var>
              <quality>3.6924487352371216e-01</quality>
              <le>8.5238730907440186e-01</le></_>
            <_><var>80</var>
              <quality>3.6918783187866211e-01</quality>
              <gt>1.2438217401504517e+00</gt></_>
            <_><var>94</var>
              <quality>3.6918371915817261e-01</quality>
              <le>9.8912990093231201e-01</le></_>
            <_><var>2</var>
              <quality>3.6910903453826904e-01</quality>
              <gt>2.0564743876457214e-01</gt></_>
            <_><var>10</var>
              <quality>3.6906448006629944e-01</quality>
              <gt>9.4359380006790161e-01</gt></_>
            <_><var>35</var>
              <quality>3.6906218528747559e-01</quality>
              <gt>9.0867763757705688e-01</gt></_>
            <_><var>4</var>
              <quality>3.6899521946907043e-01</quality>
              <le>7.9817563295364380e-01</le></_>
            <_><var>19</var>
              <quality>3.6897945404052734e-01</quality>
              <le>8.8881504535675049e-01</le></_>
            <_><var>96</var>
              <quality>3.6894997954368591e-01</quality>
              <gt>7.0217347145080566e-01</gt></_>
            <_><var>36</var>
              <quality>3.6894834041595459e-01</quality>
              <gt>1.0656380653381348e+00</gt></_>
            <_><var>47</var>
              <quality>3.6894327402114868e-01</quality>
              <le>9.4595718383789062e-01</le></_>
            <_><var>79</var>
              <quality>3.6886301636695862e-01</quality>
              <le>6.2282538414001465e-01</le></_>
            <_><var>91</var>
              <quality>3.6885836720466614e-01</quality>
              <le>1.1833503246307373e+00</le></_>
            <_><var>55</var>
              <quality>3.6884781718254089e-01</quality>
              <gt>7.3013907670974731e-01</gt></_>
            <_><var>65</var>
              <quality>3.6882075667381287e-01</quality>
              <le>9.7755765914916992e-01</le></_>
            <_><var>6</var>
              <quality>3.6879718303680420e-01</quality>
              <gt>4.0937399864196777e-01</gt></_>
            <_><var>53</var>
              <quality>3.6878114938735962e-01</quality>
              <gt>3.2604986429214478e-01</gt></_>
            <_><var>69</var>
              <quality>3.6877673864364624e-01</quality>
              <le>3.0620938539505005e-01</le></_>
            <_><var>1</var>
              <quality>3.6876800656318665e-01</quality>
              <le>7.8407578170299530e-02</le></_>
            <_><var>21</var>
              <quality>3.6876168847084045e-01</quality>
              <gt>4.1304808855056763e-01</gt></_>
            <_><var>82</var>
              <quality>3.6873131990432739e-01</quality>
              <gt>1.3578019142150879e+00</gt></_>
            <_><var>42</var>
              <quality>3.6871492862701416e-01</quality>
              <gt>2.8725799918174744e-01</gt></_>
            <_><var>12</var>
              <quality>3.6870560050010681e-01</quality>
              <gt>1.0066560506820679e+00</gt></_>
            <_><var>24</var>
              <quality>3.6867335438728333e-01</quality>
              <gt>9.0615594387054443e-01</gt></_>
            <_><var>68</var>
              <quality>3.6850517988204956e-01</quality>
              <gt>1.2850379943847656e+00</gt></_>
            <_><var>26</var>
              <quality>3.6850029230117798e-01</quality>
              <le>8.1639373302459717e-01</le></_>
            <_><var>48</var>
              <quality>3.6847794055938721e-01</quality>
              <gt>1.0449662208557129e+00</gt></_>
            <_><var>71</var>
              <quality>3.6839967966079712e-01</quality>
              <gt>1.0349864959716797e+00</gt></_>
            <_><var>29</var>
              <quality>3.6837360262870789e-01</quality>
              <le>6.2467992305755615e-01</le></_>
            <_><var>51</var>
              <quality>3.6835634708404541e-01</quality>
              <gt>5.6445515155792236e-01</gt></_>
            <_><var>18</var>
              <quality>3.6828586459159851e-01</quality>
              <gt>7.1953284740447998e-01</gt></_></splits></_>
        <_>
          <depth>1</depth>
          <sample_count>531</sample_count>
          <value>-2.7507616461181988e-01</value>
          <norm_class_idx>0</norm_class_idx>
          <Tn>0</Tn>
          <complexity>0</complexity>
          <alpha>0.</alpha>
          <node_risk>0.</node_risk>
          <tree_risk>0.</tree_risk>
          <tree_error>0.</tree_error></_>
        <_>
          <depth>1</depth>
          <sample_count>1190</sample_count>
          <value>8.8593460192389978e-02</value>
          <norm_class_idx>1</norm_class_idx>
          <Tn>0</Tn>
          <complexity>0</complexity>
          <alpha>0.</alpha>
          <node_risk>0.</node_risk>
          <tree_risk>0.</tree_risk>
          <tree_error>0.</tree_error></_></nodes></_>
    <_>
      <best_tree_idx>-1</best_tree_idx>
      <nodes>
        <_>
          <depth>0</depth>
          <sample_count>1715</sample_count>
          <value>7.8698189300012130e-04</value>
          <norm_class_idx>1</norm_class_idx>
          <Tn>0</Tn>
          <complexity>0</complexity>
          <alpha>0.</alpha>
          <node_risk>0.</node_risk>
          <tree_risk>0.</tree_risk>
          <tree_error>0.</tree_error>
          <splits>
            <_><var>67</var>
              <quality>4.8897874355316162e-01</quality>
              <le>8.7538939714431763e-01</le></_>
            <_><var>25</var>
              <quality>4.6130800247192383e-01</quality>
              <le>8.1391173601150513e-01</le></_>
            <_><var>58</var>
              <quality>4.4921922683715820e-01</quality>
              <le>7.3912352323532104e-01</le></_>
            <_><var>37</var>
              <quality>4.3142947554588318e-01</quality>
              <le>7.4977326393127441e-01</le></_>
            <_><var>12</var>
              <quality>4.2254033684730530e-01</quality>
              <le>8.2464337348937988e-01</le></_>
            <_><var>48</var>
              <quality>4.2100977897644043e-01</quality>
              <le>8.7319159507751465e-01</le></_>
            <_><var>93</var>
              <quality>4.1919237375259399e-01</quality>
              <le>1.0744001865386963e+00</le></_>
            <_><var>88</var>
              <quality>4.0572127699851990e-01</quality>
              <le>8.9163422584533691e-01</le></_>
            <_><var>75</var>
              <quality>3.9208468794822693e-01</quality>
              <le>8.9790982007980347e-01</le></_>
            <_><var>66</var>
              <quality>3.8303282856941223e-01</quality>
              <le>8.0631184577941895e-01</le></_>
            <_><var>82</var>
              <quality>3.8297325372695923e-01</quality>
              <le>1.0780899524688721e+00</le></_>
            <_><var>64</var>
              <quality>3.7102648615837097e-01</quality>
              <le>6.6609269380569458e-01</le></_>
            <_><var>104</var>
              <quality>3.7028488516807556e-01</quality>
              <gt>1.0598962008953094e-01</gt></_>
            <_><var>24</var>
              <quality>3.6997827887535095e-01</quality>
              <le>8.1195771694183350e-01</le></_>
            <_><var>65</var>
              <quality>3.6844733357429504e-01</quality>
              <le>1.1092525720596313e+00</le></_>
            <_><var>57</var>
              <quality>3.6748442053794861e-01</quality>
              <le>7.9322707653045654e-01</le></_>
            <_><var>46</var>
              <quality>3.6578980088233948e-01</quality>
              <le>8.2258307933807373e-01</le></_>
            <_><var>35</var>
              <quality>3.6383596062660217e-01</quality>
              <le>7.9332494735717773e-01</le></_>
            <_><var>22</var>
              <quality>3.6355465650558472e-01</quality>
              <le>5.7437753677368164e-01</le></_>
            <_><var>55</var>
              <quality>3.6139342188835144e-01</quality>
              <le>4.6594041585922241e-01</le></_>
            <_><var>10</var>
              <quality>3.6075946688652039e-01</quality>
              <le>7.8363251686096191e-01</le></_>
            <_><var>92</var>
              <quality>3.5500192642211914e-01</quality>
              <le>1.0183875560760498e+00</le></_>
            <_><var>23</var>
              <quality>3.5078516602516174e-01</quality>
              <le>1.0656762123107910e+00</le></_>
            <_><var>80</var>
              <quality>3.4968471527099609e-01</quality>
              <le>1.0256872177124023e+00</le></_>
            <_><var>56</var>
              <quality>3.4921151399612427e-01</quality>
              <le>9.7084641456604004e-01</le></_>
            <_><var>34</var>
              <quality>3.4900328516960144e-01</quality>
              <le>4.7103202342987061e-01</le></_>
            <_><var>47</var>
              <quality>3.4885045886039734e-01</quality>
              <le>1.1024038791656494e+00</le></_>
            <_><var>97</var>
              <quality>3.4726831316947937e-01</quality>
              <le>3.2509428262710571e-01</le></_>
            <_><var>90</var>
              <quality>3.4468114376068115e-01</quality>
              <le>8.7838858366012573e-01</le></_>
            <_><var>91</var>
              <quality>3.4407240152359009e-01</quality>
              <le>1.3383079767227173e+00</le></_>
            <_><var>11</var>
              <quality>3.4172165393829346e-01</quality>
              <le>1.0838243961334229e+00</le></_>
            <_><var>53</var>
              <quality>3.4161272644996643e-01</quality>
              <gt>1.2895241379737854e-01</gt></_>
            <_><var>101</var>
              <quality>3.4142163395881653e-01</quality>
              <gt>2.8802663087844849e-01</gt></_>
            <_><var>9</var>
              <quality>3.4107989072799683e-01</quality>
              <le>5.6537163257598877e-01</le></_>
            <_><var>36</var>
              <quality>3.4061381220817566e-01</quality>
              <le>9.5577454566955566e-01</le></_>
            <_><var>68</var>
              <quality>3.3750092983245850e-01</quality>
              <le>1.0987176895141602e+00</le></_>
            <_><var>30</var>
              <quality>3.3705294132232666e-01</quality>
              <gt>1.4736270904541016e-01</gt></_>
            <_><var>85</var>
              <quality>3.3701035380363464e-01</quality>
              <le>6.2613821029663086e-01</le></_>
            <_><var>49</var>
              <quality>3.3651483058929443e-01</quality>
              <le>1.0890419483184814e+00</le></_>
            <_><var>20</var>
              <quality>3.3495360612869263e-01</quality>
              <gt>1.9728176295757294e-01</gt></_>
            <_><var>45</var>
              <quality>3.3448991179466248e-01</quality>
              <le>7.6008212566375732e-01</le></_>
            <_><var>100</var>
              <quality>3.3441090583801270e-01</quality>
              <gt>2.6368647813796997e-01</gt></_>
            <_><var>87</var>
              <quality>3.3276730775833130e-01</quality>
              <le>1.0152230262756348e+00</le></_>
            <_><var>26</var>
              <quality>3.3128678798675537e-01</quality>
              <le>1.0739988088607788e+00</le></_>
            <_><var>59</var>
              <quality>3.3099657297134399e-01</quality>
              <le>1.0240037441253662e+00</le></_>
            <_><var>62</var>
              <quality>3.3062666654586792e-01</quality>
              <gt>3.0231374502182007e-01</gt></_>
            <_><var>38</var>
              <quality>3.3028355240821838e-01</quality>
              <le>1.0119519233703613e+00</le></_>
            <_><var>13</var>
              <quality>3.3022138476371765e-01</quality>
              <le>1.0755741596221924e+00</le></_>
            <_><var>73</var>
              <quality>3.3009791374206543e-01</quality>
              <le>1.0458992719650269e+00</le></_>
            <_><var>5</var>
              <quality>3.3008414506912231e-01</quality>
              <gt>2.1165025234222412e-01</gt></_>
            <_><var>81</var>
              <quality>3.2942637801170349e-01</quality>
              <le>1.3499792814254761e+00</le></_>
            <_><var>41</var>
              <quality>3.2872146368026733e-01</quality>
              <gt>3.2440447807312012e-01</gt></_>
            <_><var>72</var>
              <quality>3.2854709029197693e-01</quality>
              <le>5.9027194976806641e-01</le></_>
            <_><var>74</var>
              <quality>3.2852002978324890e-01</quality>
              <le>1.1310851573944092e+00</le></_>
            <_><var>84</var>
              <quality>3.2831513881683350e-01</quality>
              <le>5.3196227550506592e-01</le></_>
            <_><var>94</var>
              <quality>3.2823911309242249e-01</quality>
              <le>1.3744117021560669e+00</le></_>
            <_><var>79</var>
              <quality>3.2727906107902527e-01</quality>
              <le>9.7205913066864014e-01</le></_>
            <_><var>99</var>
              <quality>3.2707330584526062e-01</quality>
              <gt>5.0034654140472412e-01</gt></_>
            <_><var>63</var>
              <quality>3.2644775509834290e-01</quality>
              <gt>1.4938500523567200e-01</gt></_>
            <_><var>1</var>
              <quality>3.2570827007293701e-01</quality>
              <le>1.6402517259120941e-01</le></_>
            <_><var>86</var>
              <quality>3.2566735148429871e-01</quality>
              <le>1.1585118770599365e+00</le></_>
            <_><var>42</var>
              <quality>3.2532539963722229e-01</quality>
              <gt>1.5412658452987671e-01</gt></_>
            <_><var>98</var>
              <quality>3.2413557171821594e-01</quality>
              <gt>3.7893667817115784e-01</gt></_>
            <_><var>83</var>
              <quality>3.2361471652984619e-01</quality>
              <le>1.3827348947525024e+00</le></_>
            <_><var>43</var>
              <quality>3.2310956716537476e-01</quality>
              <gt>6.0204470157623291e-01</gt></_>
            <_><var>60</var>
              <quality>3.2276520133018494e-01</quality>
              <gt>5.7360637187957764e-01</gt></_>
            <_><var>76</var>
              <quality>3.2245990633964539e-01</quality>
              <le>1.2767124176025391e+00</le></_>
            <_><var>19</var>
              <quality>3.2245862483978271e-01</quality>
              <gt>9.3236875534057617e-01</gt></_>
            <_><var>77</var>
              <quality>3.2245585322380066e-01</quality>
              <gt>6.8568646907806396e-01</gt></_>
            <_><var>52</var>
              <quality>3.2243490219116211e-01</quality>
              <gt>7.9808974266052246e-01</gt></_>
            <_><var>89</var>
              <quality>3.2231587171554565e-01</quality>
              <le>1.2515727281570435e+00</le></_>
            <_><var>18</var>
              <quality>3.2153803110122681e-01</quality>
              <gt>4.0009176731109619e-01</gt></_>
            <_><var>6</var>
              <quality>3.2042381167411804e-01</quality>
              <gt>2.4642907083034515e-01</gt></_>
            <_><var>95</var>
              <quality>3.2037389278411865e-01</quality>
              <gt>3.3272120356559753e-01</gt></_>
            <_><var>61</var>
              <quality>3.2015189528465271e-01</quality>
              <gt>1.0523748397827148e+00</gt></_>
            <_><var>16</var>
              <quality>3.2008773088455200e-01</quality>
              <le>1.8406403064727783e-01</le></_>
            <_><var>15</var>
              <quality>3.1999275088310242e-01</quality>
              <gt>8.0688846111297607e-01</gt></_>
            <_><var>54</var>
              <quality>3.1995981931686401e-01</quality>
              <le>5.2402186393737793e-01</le></_>
            <_><var>21</var>
              <quality>3.1978103518486023e-01</quality>
              <le>3.8434040546417236e-01</le></_>
            <_><var>103</var>
              <quality>3.1974571943283081e-01</quality>
              <gt>2.6251202821731567e-01</gt></_>
            <_><var>17</var>
              <quality>3.1930306553840637e-01</quality>
              <le>1.9323246181011200e-01</le></_>
            <_><var>31</var>
              <quality>3.1907996535301208e-01</quality>
              <gt>3.5553753376007080e-01</gt></_>
            <_><var>51</var>
              <quality>3.1905448436737061e-01</quality>
              <gt>3.2114100456237793e-01</gt></_>
            <_><var>50</var>
              <quality>3.1889411807060242e-01</quality>
              <le>3.3684712648391724e-01</le></_>
            <_><var>39</var>
              <quality>3.1883221864700317e-01</quality>
              <gt>6.6119992733001709e-01</gt></_>
            <_><var>71</var>
              <quality>3.1864070892333984e-01</quality>
              <gt>6.6061764955520630e-01</gt></_>
            <_><var>33</var>
              <quality>3.1846255064010620e-01</quality>
              <le>9.3791651725769043e-01</le></_>
            <_><var>32</var>
              <quality>3.1817030906677246e-01</quality>
              <gt>3.2803201675415039e-01</gt></_>
            <_><var>29</var>
              <quality>3.1814160943031311e-01</quality>
              <gt>6.3083195686340332e-01</gt></_>
            <_><var>27</var>
              <quality>3.1814160943031311e-01</quality>
              <le>3.7174230813980103e-01</le></_>
            <_><var>96</var>
              <quality>3.1803724169731140e-01</quality>
              <le>6.9736200571060181e-01</le></_>
            <_><var>69</var>
              <quality>3.1780043244361877e-01</quality>
              <gt>3.4886646270751953e-01</gt></_>
            <_><var>102</var>
              <quality>3.1772106885910034e-01</quality>
              <le>4.2042928934097290e-01</le></_>
            <_><var>7</var>
              <quality>3.1771826744079590e-01</quality>
              <gt>4.4915878772735596e-01</gt></_>
            <_><var>44</var>
              <quality>3.1668999791145325e-01</quality>
              <le>1.2350492477416992e+00</le></_>
            <_><var>78</var>
              <quality>3.1666591763496399e-01</quality>
              <le>1.4090101718902588e+00</le></_>
            <_><var>3</var>
              <quality>3.1661337614059448e-01</quality>
              <gt>4.6106499433517456e-01</gt></_>
            <_><var>14</var>
              <quality>3.1606876850128174e-01</quality>
              <gt>4.3808209896087646e-01</gt></_>
            <_><var>8</var>
              <quality>3.1600266695022583e-01</quality>
              <le>1.1474328041076660e+00</le></_>
            <_><var>0</var>
              <quality>3.1589320302009583e-01</quality>
              <le>8.0458807945251465e-01</le></_>
            <_><var>28</var>
              <quality>3.1585541367530823e-01</quality>
              <gt>3.0906999111175537e-01</gt></_>
            <_><var>4</var>
              <quality>3.1567138433456421e-01</quality>
              <gt>7.8306269645690918e-01</gt></_>
            <_><var>2</var>
              <quality>3.1558281183242798e-01</quality>
              <le>2.3156261444091797e-01</le></_></splits></_>
        <_>
          <depth>1</depth>
          <sample_count>1173</sample_count>
          <value>-1.1511204921916759e-01</value>
          <norm_class_idx>0</norm_class_idx>
          <Tn>0</Tn>
          <complexity>0</complexity>
          <alpha>0.</alpha>
          <node_risk>0.</node_risk>
          <tree_risk>0.</tree_risk>
          <tree_error>0.</tree_error></_>
        <_>
          <depth>1</depth>
          <sample_count>542</sample_count>
          <value>2.1384050676249536e-01</value>
          <norm_class_idx>1</norm_class_idx>
          <Tn>0</Tn>
          <complexity>0</complexity>
          <alpha>0.</alpha>
          <node_risk>0.</node_risk>
          <tree_risk>0.</tree_risk>
          <tree_error>0.</tree_error></_></nodes></_>
    <_>
      <best_tree_idx>-1</best_tree_idx>
      <nodes>
        <_>
          <depth>0</depth>
          <sample_count>1746</sample_count>
          <value>3.1073943161067357e-02</value>
          <norm_class_idx>1</norm_class_idx>
          <Tn>0</Tn>
          <complexity>0</complexity>
          <alpha>0.</alpha>
          <node_risk>0.</node_risk>
          <tree_risk>0.</tree_risk>
          <tree_error>0.</tree_error>
          <splits>
            <_><var>10</var>
              <quality>4.9194791913032532e-01</quality>
              <le>6.8089210987091064e-01</le></_>
            <_><var>46</var>
              <quality>4.7974514961242676e-01</quality>
              <le>6.9098186492919922e-01</le></_>
            <_><var>35</var>
              <quality>4.7635054588317871e-01</quality>
              <le>6.6589832305908203e-01</le></_>
            <_><var>24</var>
              <quality>4.7551456093788147e-01</quality>
              <le>6.7301213741302490e-01</le></_>
            <_><var>57</var>
              <quality>4.7330796718597412e-01</quality>
              <le>6.5919649600982666e-01</le></_>
            <_><var>66</var>
              <quality>4.7005727887153625e-01</quality>
              <le>6.7472565174102783e-01</le></_>
            <_><var>92</var>
              <quality>4.6141776442527771e-01</quality>
              <le>8.3288329839706421e-01</le></_>
            <_><var>73</var>
              <quality>4.6136516332626343e-01</quality>
              <le>7.9824435710906982e-01</le></_>
            <_><var>80</var>
              <quality>4.6021166443824768e-01</quality>
              <le>8.1956028938293457e-01</le></_>
            <_><var>56</var>
              <quality>4.5698463916778564e-01</quality>
              <le>8.0804359912872314e-01</le></_>
            <_><var>87</var>
              <quality>4.5689493417739868e-01</quality>
              <le>7.9625177383422852e-01</le></_>
            <_><var>36</var>
              <quality>4.5575433969497681e-01</quality>
              <le>8.0092954635620117e-01</le></_>
            <_><var>23</var>
              <quality>4.5531168580055237e-01</quality>
              <le>9.1004341840744019e-01</le></_>
            <_><var>86</var>
              <quality>4.5361149311065674e-01</quality>
              <le>9.0512102842330933e-01</le></_>
            <_><var>11</var>
              <quality>4.5185279846191406e-01</quality>
              <le>9.1577577590942383e-01</le></_>
            <_><var>65</var>
              <quality>4.4942358136177063e-01</quality>
              <le>1.0040373802185059e+00</le></_>
            <_><var>81</var>
              <quality>4.4925212860107422e-01</quality>
              <le>1.1756796836853027e+00</le></_>
            <_><var>13</var>
              <quality>4.4885236024856567e-01</quality>
              <le>8.0026167631149292e-01</le></_>
            <_><var>94</var>
              <quality>4.4854846596717834e-01</quality>
              <le>1.0207855701446533e+00</le></_>
            <_><var>91</var>
              <quality>4.4853493571281433e-01</quality>
              <le>1.1801114082336426e+00</le></_>
            <_><var>75</var>
              <quality>4.4822987914085388e-01</quality>
              <le>7.3286348581314087e-01</le></_>
            <_><var>38</var>
              <quality>4.4811269640922546e-01</quality>
              <le>7.4547868967056274e-01</le></_>
            <_><var>74</var>
              <quality>4.4810935854911804e-01</quality>
              <le>8.8076478242874146e-01</le></_>
            <_><var>76</var>
              <quality>4.4794511795043945e-01</quality>
              <le>8.7308776378631592e-01</le></_>
            <_><var>59</var>
              <quality>4.4780737161636353e-01</quality>
              <le>6.8777239322662354e-01</le></_>
            <_><var>26</var>
              <quality>4.4765722751617432e-01</quality>
              <le>7.7784156799316406e-01</le></_>
            <_><var>83</var>
              <quality>4.4725945591926575e-01</quality>
              <le>1.0307004451751709e+00</le></_>
            <_><var>49</var>
              <quality>4.4719794392585754e-01</quality>
              <le>8.4243893623352051e-01</le></_>
            <_><var>89</var>
              <quality>4.4680112600326538e-01</quality>
              <le>8.3297282457351685e-01</le></_>
            <_><var>88</var>
              <quality>4.4675365090370178e-01</quality>
              <le>7.5157719850540161e-01</le></_>
            <_><var>47</var>
              <quality>4.4601929187774658e-01</quality>
              <le>9.6772956848144531e-01</le></_>
            <_><var>68</var>
              <quality>4.4591522216796875e-01</quality>
              <le>8.5617923736572266e-01</le></_>
            <_><var>12</var>
              <quality>4.4452655315399170e-01</quality>
              <le>6.5794003009796143e-01</le></_>
            <_><var>37</var>
              <quality>4.4442287087440491e-01</quality>
              <le>5.8815097808837891e-01</le></_>
            <_><var>95</var>
              <quality>4.4394505023956299e-01</quality>
              <le>2.4985823035240173e-01</le></_>
            <_><var>63</var>
              <quality>4.4389253854751587e-01</quality>
              <le>8.2008898258209229e-02</le></_>
            <_><var>8</var>
              <quality>4.4389161467552185e-01</quality>
              <le>8.7174701690673828e-01</le></_>
            <_><var>98</var>
              <quality>4.4373017549514771e-01</quality>
              <le>1.0723088681697845e-01</le></_>
            <_><var>82</var>
              <quality>4.4363346695899963e-01</quality>
              <le>8.4052073955535889e-01</le></_>
            <_><var>48</var>
              <quality>4.4363346695899963e-01</quality>
              <le>6.4462399482727051e-01</le></_>
            <_><var>104</var>
              <quality>4.4356563687324524e-01</quality>
              <le>4.9741631373763084e-03</le></_>
            <_><var>28</var>
              <quality>4.4353052973747253e-01</quality>
              <le>3.0540478229522705e-01</le></_>
            <_><var>97</var>
              <quality>4.4343391060829163e-01</quality>
              <le>6.4655773341655731e-02</le></_>
            <_><var>85</var>
              <quality>4.4342958927154541e-01</quality>
              <le>3.4087109565734863e-01</le></_>
            <_><var>72</var>
              <quality>4.4342958927154541e-01</quality>
              <le>3.5069742798805237e-01</le></_>
            <_><var>99</var>
              <quality>4.4340175390243530e-01</quality>
              <gt>8.3815026283264160e-01</gt></_>
            <_><var>31</var>
              <quality>4.4338729977607727e-01</quality>
              <le>3.1393599510192871e-01</le></_>
            <_><var>100</var>
              <quality>4.4338524341583252e-01</quality>
              <gt>4.7667190432548523e-01</gt></_>
            <_><var>101</var>
              <quality>4.4338524341583252e-01</quality>
              <gt>5.0696575641632080e-01</gt></_>
            <_><var>34</var>
              <quality>4.4338068366050720e-01</quality>
              <le>2.6884710788726807e-01</le></_>
            <_><var>16</var>
              <quality>4.4334554672241211e-01</quality>
              <le>7.2766132652759552e-02</le></_>
            <_><var>55</var>
              <quality>4.4331356883049011e-01</quality>
              <le>2.0297092199325562e-01</le></_>
            <_><var>93</var>
              <quality>4.4330546259880066e-01</quality>
              <le>7.5721263885498047e-01</le></_>
            <_><var>58</var>
              <quality>4.4330546259880066e-01</quality>
              <le>4.7493302822113037e-01</le></_>
            <_><var>78</var>
              <quality>4.4325459003448486e-01</quality>
              <le>1.0829410552978516e+00</le></_></splits></_>
        <_>
          <depth>1</depth>
          <sample_count>218</sample_count>
          <value>5.9477585671278799e-01</value>
          <norm_class_idx>1</norm_class_idx>
          <Tn>0</Tn>
          <complexity>0</complexity>
          <alpha>0.</alpha>
          <node_risk>0.</node_risk>
          <tree_risk>0.</tree_risk>
          <tree_error>0.</tree_error></_>
        <_>
          <depth>1</depth>
          <sample_count>1528</sample_count>
          <value>-2.4152153075178984e-02</value>
          <norm_class_idx>0</norm_class_idx>
          <Tn>0</Tn>
          <complexity>0</complexity>
          <alpha>0.</alpha>
          <node_risk>0.</node_risk>
          <tree_risk>0.</tree_risk>
          <tree_error>0.</tree_error></_></nodes></_>
    <_>
      <best_tree_idx>-1</best_tree_idx>
      <nodes>
        <_>
          <depth>0</depth>
          <sample_count>1792</sample_count>
          <value>-2.8768187061044986e-02</value>
          <norm_class_idx>0</norm_class_idx>
          <Tn>0</Tn>
          <complexity>0</complexity>
          <alpha>0.</alpha>
          <node_risk>0.</node_risk>
          <tree_risk>0.</tree_risk>
          <tree_error>0.</tree_error>
          <splits>
            <_><var>84</var>
              <quality>4.9507048726081848e-01</quality>
              <le>4.1965776681900024e-01</le></_>
            <_><var>62</var>
              <quality>4.2060390114784241e-01</quality>
